{"learner":{"attributes":{"scikit_learn":"{\"_estimator_type\": \"regressor\"}"},"feature_names":["move_count","mean_cp_loss","mean_best_diff","std_cp_loss"],"feature_types":["int","float","float","float"],"gradient_booster":{"model":{"cats":{"enc":[],"feature_segments":[],"sorted_idx":[]},"gbtree_model_param":{"num_parallel_tree":"1","num_trees":"500"},"iteration_indptr":[0,1,2,3,4,5,6,7,8,9,10,11,12,13,14,15,16,17,18,19,20,21,22,23,24,25,26,27,28,29,30,31,32,33,34,35,36,37,38,39,40,41,42,43,44,45,46,47,48,49,50,51,52,53,54,55,56,57,58,59,60,61,62,63,64,65,66,67,68,69,70,71,72,73,74,75,76,77,78,79,80,81,82,83,84,85,86,87,88,89,90,91,92,93,94,95,96,97,98,99,100,101,102,103,104,105,106,107,108,109,110,111,112,113,114,115,116,117,118,119,120,121,122,123,124,125,126,127,128,129,130,131,132,133,134,135,136,137,138,139,140,141,142,143,144,145,146,147,148,149,150,151,152,153,154,155,156,157,158,159,160,161,162,163,164,165,166,167,168,169,170,171,172,173,174,175,176,177,178,179,180,181,182,183,184,185,186,187,188,189,190,191,192,193,194,195,196,197,198,199,200,201,202,203,204,205,206,207,208,209,210,211,212,213,214,215,216,217,218,219,220,221,222,223,224,225,226,227,228,229,230,231,232,233,234,235,236,237,238,239,240,241,242,243,244,245,246,247,248,249,250,251,252,253,254,255,256,257,258,259,260,261,262,263,264,265,266,267,268,269,270,271,272,273,274,275,276,277,278,279,280,281,282,283,284,285,286,287,288,289,290,291,292,293,294,295,296,297,298,299,300,301,302,303,304,305,306,307,308,309,310,311,312,313,314,315,316,317,318,319,320,321,322,323,324,325,326,327,328,329,330,331,332,333,334,335,336,337,338,339,340,341,342,343,344,345,346,347,348,349,350,351,352,353,354,355,356,357,358,359,360,361,362,363,364,365,366,367,368,369,370,371,372,373,374,375,376,377,378,379,380,381,382,383,384,385,386,387,388,389,390,391,392,393,394,395,396,397,398,399,400,401,402,403,404,405,406,407,408,409,410,411,412,413,414,415,416,417,418,419,420,421,422,423,424,425,426,427,428,429,430,431,432,433,434,435,436,437,438,439,440,441,442,443,444,445,446,447,448,449,450,451,452,453,454,455,456,457,458,459,460,461,462,463,464,465,466,467,468,469,470,471,472,473,474,475,476,477,478,479,480,481,482,483,484,485,486,487,488,489,490,491,492,493,494,495,496,497,498,499,500],"tree_info":[0,0,0,0,0,0,0,0,0,0,0,0,0,0,0,0,0,0,0,0,0,0,0,0,0,0,0,0,0,0,0,0,0,0,0,0,0,0,0,0,0,0,0,0,0,0,0,0,0,0,0,0,0,0,0,0,0,0,0,0,0,0,0,0,0,0,0,0,0,0,0,0,0,0,0,0,0,0,0,0,0,0,0,0,0,0,0,0,0,0,0,0,0,0,0,0,0,0,0,0,0,0,0,0,0,0,0,0,0,0,0,0,0,0,0,0,0,0,0,0,0,0,0,0,0,0,0,0,0,0,0,0,0,0,0,0,0,0,0,0,0,0,0,0,0,0,0,0,0,0,0,0,0,0,0,0,0,0,0,0,0,0,0,0,0,0,0,0,0,0,0,0,0,0,0,0,0,0,0,0,0,0,0,0,0,0,0,0,0,0,0,0,0,0,0,0,0,0,0,0,0,0,0,0,0,0,0,0,0,0,0,0,0,0,0,0,0,0,0,0,0,0,0,0,0,0,0,0,0,0,0,0,0,0,0,0,0,0,0,0,0,0,0,0,0,0,0,0,0,0,0,0,0,0,0,0,0,0,0,0,0,0,0,0,0,0,0,0,0,0,0,0,0,0,0,0,0,0,0,0,0,0,0,0,0,0,0,0,0,0,0,0,0,0,0,0,0,0,0,0,0,0,0,0,0,0,0,0,0,0,0,0,0,0,0,0,0,0,0,0,0,0,0,0,0,0,0,0,0,0,0,0,0,0,0,0,0,0,0,0,0,0,0,0,0,0,0,0,0,0,0,0,0,0,0,0,0,0,0,0,0,0,0,0,0,0,0,0,0,0,0,0,0,0,0,0,0,0,0,0,0,0,0,0,0,0,0,0,0,0,0,0,0,0,0,0,0,0,0,0,0,0,0,0,0,0,0,0,0,0,0,0,0,0,0,0,0,0,0,0,0,0,0,0,0,0,0,0,0,0,0,0,0,0,0,0,0,0,0,0,0,0,0,0,0,0,0,0,0,0,0,0,0,0,0,0,0,0,0,0,0,0,0,0,0,0,0,0,0,0,0,0,0,0,0,0,0,0,0,0,0,0,0,0,0,0,0,0,0,0,0,0,0,0,0,0,0,0,0,0],"trees":[{"base_weights":[5.2519284E-2,1.774061E1,-1.11515015E2,-9.6333755E1,4.373332E1,-8.296178E1,-1.6613809E2,-1.5730663E2,-6.4763016E1,5.5381107E1,-1.0093364E1,-6.47609E1,-1.0284941E2,-1.4504303E2,-1.9561595E2,-1.9605286E2,-1.3572092E2,-8.786268E1,-4.628887E1,6.8021646E0,7.045562E1,-3.703215E1,1.1118397E0,-5.625614E1,-7.326455E1,-9.314998E1,-1.1447686E2,-1.3533966E2,-1.5791937E2,-1.7678474E2,-2.1192578E2,-2.182114E2,-1.812364E2,-1.5063622E2,-1.2377737E2,-9.936567E1,-7.629717E1,-5.8252266E1,-3.8308712E1,-2.4831089E1,2.0281189E1,3.6734234E1,9.650718E1,-2.524983E1,-4.922249E1,1.8765406E1,-2.1279179E1,-6.960737E1,-5.1324913E1,-7.172826E1,-9.396691E1,-9.168255E1,-1.360379E2,-1.1232436E2,-1.5346028E2,-1.13809166E2,-1.3958417E2,-1.3882016E2,-1.6716551E2,-1.6381267E2,-2.0619278E2,-1.9927675E2,-2.4235493E2,-9.652205E0,-1.2141691E1,-7.759716E0,-9.683811E0,-6.462269E0,-7.800319E0,-5.070264E0,-6.3648887E0,-3.806044E0,-5.127874E0,-3.1561637E0,-3.9942765E0,-3.425535E0,-2.6705985E0,-2.7978165E0,-1.5735773E0,-4.5842084E-1,-1.7696571E0,-5.8201153E-2,1.9495506E0,4.8853237E-2,2.2365463E0,5.455721E0,2.9839792E0,-1.9318682E0,-6.4949554E-1,-2.857908E0,-1.989427E0,1.4799441E0,4.0449974E-1,-5.931279E-1,-1.5371176E0,-3.7195823E0,-3.240097E0,-2.4161992E0,-3.4190197E0,-3.9771125E0,-3.3565118E0,-4.5171046E0,-6.2566233E0,-4.2906694E0,-4.8754244E0,-6.2129173E0,-8.14062E0,-5.2776694E0,-5.841411E0,-7.1844707E0,-8.944625E0,-4.8738775E0,-6.0154586E0,-6.837723E0,-8.445832E0,-6.0442457E0,-7.2620516E0,-8.19303E0,-1.0270793E1,-6.873426E0,-8.547559E0,-9.57455E0,-1.1210952E1,-9.686562E0,-1.120284E1,-1.1599443E1,-1.3035479E1],"categories":[],"categories_nodes":[],"categories_segments":[],"categories_sizes":[],"default_left":[0,0,0,0,0,0,0,0,0,0,0,0,0,0,0,0,0,0,0,0,0,0,0,0,0,0,0,0,0,0,0,0,0,0,0,0,0,0,0,0,0,0,0,0,0,0,0,0,0,0,0,0,0,0,0,0,0,0,0,0,0,0,0,0,0,0,0,0,0,0,0,0,0,0,0,0,0,0,0,0,0,0,0,0,0,0,0,0,0,0,0,0,0,0,0,0,0,0,0,0,0,0,0,0,0,0,0,0,0,0,0,0,0,0,0,0,0,0,0,0,0,0,0,0,0,0,0],"id":0,"left_children":[1,3,5,7,9,11,13,15,17,19,21,23,25,27,29,31,33,35,37,39,41,43,45,47,49,51,53,55,57,59,61,63,65,67,69,71,73,75,77,79,81,83,85,87,89,91,93,95,97,99,101,103,105,107,109,111,113,115,117,119,121,123,125,-1,-1,-1,-1,-1,-1,-1,-1,-1,-1,-1,-1,-1,-1,-1,-1,-1,-1,-1,-1,-1,-1,-1,-1,-1,-1,-1,-1,-1,-1,-1,-1,-1,-1,-1,-1,-1,-1,-1,-1,-1,-1,-1,-1,-1,-1,-1,-1,-1,-1,-1,-1,-1,-1,-1,-1,-1,-1,-1,-1,-1,-1,-1,-1],"loss_changes":[3.1876188E10,4.134049E10,3.4475356E9,4.980488E9,7.1191654E9,5.2544307E8,4.7183053E8,7.3819136E8,7.2746086E8,6.836046E9,6.097581E8,5.481267E7,7.822182E7,5.524173E7,9.717555E7,1.0364006E8,1.009623E8,1.0076928E8,9.042419E7,9.426223E8,6.2586225E9,8.523021E7,5.639214E8,2.494656E7,1.204736E7,2.3789056E7,2.6454784E7,2.303488E7,3.354112E7,5.6009216E7,6.5232384E7,7.836672E7,6.128128E7,2.8935168E7,2.4779776E7,2.816896E7,1.7851392E7,1.8814976E7,6.855411E7,1.0927283E8,6.219915E8,8.878551E8,1.8660844E9,4.952672E7,2.1832256E7,9.225581E7,5.6044064E7,2.345088E6,1.416128E7,1.2671232E7,2.946112E6,1.2495872E7,3.925312E6,9.105152E6,4.07568E6,4.398208E6,1.7464576E7,7.122816E6,1.6155648E7,1.9148288E7,1.1873152E7,1.6421376E7,9.414144E6,0E0,0E0,0E0,0E0,0E0,0E0,0E0,0E0,0E0,0E0,0E0,0E0,0E0,0E0,0E0,0E0,0E0,0E0,0E0,0E0,0E0,0E0,0E0,0E0,0E0,0E0,0E0,0E0,0E0,0E0,0E0,0E0,0E0,0E0,0E0,0E0,0E0,0E0,0E0,0E0,0E0,0E0,0E0,0E0,0E0,0E0,0E0,0E0,0E0,0E0,0E0,0E0,0E0,0E0,0E0,0E0,0E0,0E0,0E0,0E0,0E0,0E0,0E0,0E0],"parents":[2147483647,0,0,1,1,2,2,3,3,4,4,5,5,6,6,7,7,8,8,9,9,10,10,11,11,12,12,13,13,14,14,15,15,16,16,17,17,18,18,19,19,20,20,21,21,22,22,23,23,24,24,25,25,26,26,27,27,28,28,29,29,30,30,31,31,32,32,33,33,34,34,35,35,36,36,37,37,38,38,39,39,40,40,41,41,42,42,43,43,44,44,45,45,46,46,47,47,48,48,49,49,50,50,51,51,52,52,53,53,54,54,55,55,56,56,57,57,58,58,59,59,60,60,61,61,62,62],"right_children":[2,4,6,8,10,12,14,16,18,20,22,24,26,28,30,32,34,36,38,40,42,44,46,48,50,52,54,56,58,60,62,64,66,68,70,72,74,76,78,80,82,84,86,88,90,92,94,96,98,100,102,104,106,108,110,112,114,116,118,120,122,124,126,-1,-1,-1,-1,-1,-1,-1,-1,-1,-1,-1,-1,-1,-1,-1,-1,-1,-1,-1,-1,-1,-1,-1,-1,-1,-1,-1,-1,-1,-1,-1,-1,-1,-1,-1,-1,-1,-1,-1,-1,-1,-1,-1,-1,-1,-1,-1,-1,-1,-1,-1,-1,-1,-1,-1,-1,-1,-1,-1,-1,-1,-1,-1,-1],"split_conditions":[6.628571E1,-6.1666668E1,9.48E1,-8.96E1,4.622222E1,7.763333E1,1.18666664E2,-1.163E2,-7.3833336E1,-4.2060608E1,3.5E1,7.142857E1,8.56E1,1.05666664E2,2.4E1,-1.42E2,-1.0085714E2,-8.053125E1,-6.84E1,3.4E1,2.8E1,5.53E1,5.6526318E1,3.3E1,9.4E1,1.04E2,9E1,2.1E1,2.6E1,1.6933333E2,1.46E2,2.1E1,2.3E1,2.1E1,8.35E1,7.375E1,6.990909E1,3.6E1,3.4E1,4.8E1,-5.2E1,-2.9222221E1,3.45E1,2.3E1,2.5E1,5.12E1,6.1125E1,2.2E1,8.8E1,3.7E1,1.34E2,8.1333336E1,1.24E2,8.8916664E1,1.12E2,1.2E1,7.8E1,1.5E1,7.8E1,1.3E1,1.5E1,5.8E1,1.6933333E2,-9.652205E0,-1.2141691E1,-7.759716E0,-9.683811E0,-6.462269E0,-7.800319E0,-5.070264E0,-6.3648887E0,-3.806044E0,-5.127874E0,-3.1561637E0,-3.9942765E0,-3.425535E0,-2.6705985E0,-2.7978165E0,-1.5735773E0,-4.5842084E-1,-1.7696571E0,-5.8201153E-2,1.9495506E0,4.8853237E-2,2.2365463E0,5.455721E0,2.9839792E0,-1.9318682E0,-6.4949554E-1,-2.857908E0,-1.989427E0,1.4799441E0,4.0449974E-1,-5.931279E-1,-1.5371176E0,-3.7195823E0,-3.240097E0,-2.4161992E0,-3.4190197E0,-3.9771125E0,-3.3565118E0,-4.5171046E0,-6.2566233E0,-4.2906694E0,-4.8754244E0,-6.2129173E0,-8.14062E0,-5.2776694E0,-5.841411E0,-7.1844707E0,-8.944625E0,-4.8738775E0,-6.0154586E0,-6.837723E0,-8.445832E0,-6.0442457E0,-7.2620516E0,-8.19303E0,-1.0270793E1,-6.873426E0,-8.547559E0,-9.57455E0,-1.1210952E1,-9.686562E0,-1.120284E1,-1.1599443E1,-1.3035479E1],"split_indices":[1,1,1,1,1,1,1,1,1,1,0,1,1,1,0,1,1,1,1,0,0,1,1,0,0,0,0,0,0,1,1,0,0,0,2,2,2,0,0,2,1,2,1,0,0,1,1,0,0,0,0,1,0,1,0,0,0,0,0,0,0,0,1,0,0,0,0,0,0,0,0,0,0,0,0,0,0,0,0,0,0,0,0,0,0,0,0,0,0,0,0,0,0,0,0,0,0,0,0,0,0,0,0,0,0,0,0,0,0,0,0,0,0,0,0,0,0,0,0,0,0,0,0,0,0,0,0],"split_type":[0,0,0,0,0,0,0,0,0,0,0,0,0,0,0,0,0,0,0,0,0,0,0,0,0,0,0,0,0,0,0,0,0,0,0,0,0,0,0,0,0,0,0,0,0,0,0,0,0,0,0,0,0,0,0,0,0,0,0,0,0,0,0,0,0,0,0,0,0,0,0,0,0,0,0,0,0,0,0,0,0,0,0,0,0,0,0,0,0,0,0,0,0,0,0,0,0,0,0,0,0,0,0,0,0,0,0,0,0,0,0,0,0,0,0,0,0,0,0,0,0,0,0,0,0,0,0],"sum_hessian":[1.615279E7,1.3942349E7,2.210441E6,2.587327E6,1.1355022E7,1.45163E6,7.58811E5,8.82651E5,1.704676E6,9.334984E6,2.020038E6,7.5796E5,6.9367E5,4.42298E5,3.16513E5,3.15794E5,5.66857E5,7.57505E5,9.47171E5,2.210726E6,7.124258E6,5.93407E5,1.426631E6,3.78959E5,3.79001E5,3.78195E5,3.15475E5,2.52232E5,1.90066E5,1.46907E5,1.69606E5,1.26538E5,1.89256E5,2.52064E5,3.14793E5,3.79775E5,3.7773E5,3.78996E5,5.68175E5,6.60539E5,1.550187E6,3.105052E6,4.019206E6,3.01755E5,2.91652E5,7.97704E5,6.28927E5,1.02211E5,2.76748E5,3.52823E5,2.6178E4,3.65686E5,1.2509E4,2.98971E5,1.6504E4,4.1541E4,2.10691E5,6.2004E4,1.28062E5,1.01945E5,4.4962E4,1.1981E5,4.9796E4,6.2581E4,6.3957E4,6.1184E4,1.28072E5,5.0587E4,2.01477E5,4.2804E4,2.71989E5,4.5855E4,3.3392E5,8.0866E4,2.96864E5,1.21493E5,2.57503E5,1.58656E5,4.09519E5,2.66034E5,3.94505E5,7.22294E5,8.27893E5,5.67496E5,2.537556E6,2.994197E6,1.025009E6,1.44243E5,1.57512E5,1.58402E5,1.3325E5,3.9592E5,4.01784E5,3.1524E5,3.13687E5,5.1211E4,5.1E4,2.35343E5,4.1405E4,1.30697E5,2.22126E5,2.3454E4,2.724E3,1.82175E5,1.83511E5,8.691E3,3.818E3,1.19437E5,1.79534E5,1.1928E4,4.576E3,1.1831E4,2.971E4,1.92159E5,1.8532E4,1.6351E4,4.5653E4,1.17882E5,1.018E4,2.1739E4,8.0206E4,2.4771E4,2.0191E4,9.7908E4,2.1902E4,3.1832E4,1.7964E4],"tree_param":{"num_deleted":"0","num_feature":"4","num_nodes":"127","size_leaf_vector":"1"}},{"base_weights":[2.4605787E-3,3.949675E1,-7.541039E1,4.9476017E1,-4.096092E1,-4.9244476E1,-1.2352749E2,-2.4570461E1,6.468579E1,-2.0538298E1,-8.539445E1,-3.667833E1,-1.1793677E2,-1.0823123E2,-1.6751717E2,-7.803624E1,-7.385794E0,2.8533321E1,7.197684E1,-9.820131E0,-3.7695335E1,-7.186619E1,-1.2232685E2,-1.0643766E2,-1.7154743E1,-9.974606E1,-1.5412831E2,-9.647549E1,-1.7029716E2,-1.5591182E2,-2.0220296E2,-6.2598404E1,-1.1494513E2,-2.423259E1,6.4504557E0,1.2457677E1,3.7872463E1,8.058085E1,4.0088295E1,-2.4354818E1,-5.9087777E0,-2.865269E1,-4.3672173E1,-6.402761E1,-8.652791E1,-1.10812805E2,-1.4084872E2,-1.4675566E2,-8.696194E1,-6.5581923E0,-5.4747528E1,-8.8165245E1,-1.12441154E2,-1.4281403E2,-1.8210986E2,-1.5904218E2,-7.7206856E1,-1.5356345E2,-1.9570724E2,-1.4739209E2,-2.0183769E2,-1.8865475E2,-2.1575354E2,-2.548639E0,-3.6255815E0,-6.75466E0,-4.7879806E0,-9.183213E-1,-1.8897291E0,-1.0123595E0,4.7501364E-1,-6.291158E-1,8.134328E-1,6.334537E-1,2.0436168E0,4.2041836E0,2.7561488E0,2.414655E0,1.0964829E0,-1.9496564E0,-1.0463911E0,-1.093261E0,-1.647511E-1,-2.0163894E0,-1.28907E0,-1.942351E0,-2.3887544E0,-2.973779E0,-3.546915E0,-4.5513067E0,-3.9174366E0,-4.521164E0,-5.767011E0,-6.690928E0,-8.523654E0,-8.82745E0,-6.6253066E0,-5.149398E0,-3.7809188E0,-1.944932E0,3.8443407E-1,-2.2405596E0,-3.3804557E0,-4.109504E0,-4.711789E0,-5.2934422E0,-5.979882E0,-6.882413E0,-7.800008E0,-9.297319E0,-7.675953E0,-9.700724E0,-7.0832047E0,-3.3716125E0,-5.6256547E0,-7.2576103E0,-8.291103E0,-9.228053E0,-1.0630923E1,-6.719185E0,-9.627471E0,-1.1102491E1,-9.545397E0,-9.20255E0,-1.1000429E1,-9.941999E0,-1.12274065E1],"categories":[],"categories_nodes":[],"categories_segments":[],"categories_sizes":[],"default_left":[0,0,0,0,0,0,0,0,0,0,0,0,0,0,0,0,0,0,0,0,0,0,0,0,0,0,0,0,0,0,0,0,0,0,0,0,0,0,0,0,0,0,0,0,0,0,0,0,0,0,0,0,0,0,0,0,0,0,0,0,0,0,0,0,0,0,0,0,0,0,0,0,0,0,0,0,0,0,0,0,0,0,0,0,0,0,0,0,0,0,0,0,0,0,0,0,0,0,0,0,0,0,0,0,0,0,0,0,0,0,0,0,0,0,0,0,0,0,0,0,0,0,0,0,0,0,0],"id":1,"left_children":[1,3,5,7,9,11,13,15,17,19,21,23,25,27,29,31,33,35,37,39,41,43,45,47,49,51,53,55,57,59,61,63,65,67,69,71,73,75,77,79,81,83,85,87,89,91,93,95,97,99,101,103,105,107,109,111,113,115,117,119,121,123,125,-1,-1,-1,-1,-1,-1,-1,-1,-1,-1,-1,-1,-1,-1,-1,-1,-1,-1,-1,-1,-1,-1,-1,-1,-1,-1,-1,-1,-1,-1,-1,-1,-1,-1,-1,-1,-1,-1,-1,-1,-1,-1,-1,-1,-1,-1,-1,-1,-1,-1,-1,-1,-1,-1,-1,-1,-1,-1,-1,-1,-1,-1,-1,-1],"loss_changes":[4.8108114E10,8.511445E9,6.98974E9,1.0621497E10,1.0614797E9,3.104169E9,1.3158359E9,1.4765893E9,2.0623012E9,1.4737104E8,1.8402586E8,4.1403543E9,3.6610714E8,1.05869005E9,2.0307046E8,2.2272691E8,2.834916E8,1.9713523E8,1.7863741E9,2.8041832E7,1.6652768E7,3.097792E7,2.104384E7,5.2197376E8,9.4619066E8,5.4402304E7,5.8866176E7,1.4707292E9,9.822003E7,1.478953E8,2.3181312E7,3.1760896E7,4.454925E7,4.363104E7,5.437159E7,4.60452E7,6.279565E7,4.572283E8,2.061166E8,5.246084E6,1.6209853E7,4.109672E6,3.670912E6,5.522176E6,3.448256E6,5.611264E6,7.86016E6,9.189888E7,8.147917E7,8.537475E8,6.6745984E7,7.012864E6,8.291584E6,9.001472E6,5.845888E6,1.745449E8,3.2187392E8,1.4341632E7,1.7254144E7,1.8730752E8,1.3026304E7,9.090304E6,9.360896E6,0E0,0E0,0E0,0E0,0E0,0E0,0E0,0E0,0E0,0E0,0E0,0E0,0E0,0E0,0E0,0E0,0E0,0E0,0E0,0E0,0E0,0E0,0E0,0E0,0E0,0E0,0E0,0E0,0E0,0E0,0E0,0E0,0E0,0E0,0E0,0E0,0E0,0E0,0E0,0E0,0E0,0E0,0E0,0E0,0E0,0E0,0E0,0E0,0E0,0E0,0E0,0E0,0E0,0E0,0E0,0E0,0E0,0E0,0E0,0E0,0E0,0E0,0E0,0E0],"parents":[2147483647,0,0,1,1,2,2,3,3,4,4,5,5,6,6,7,7,8,8,9,9,10,10,11,11,12,12,13,13,14,14,15,15,16,16,17,17,18,18,19,19,20,20,21,21,22,22,23,23,24,24,25,25,26,26,27,27,28,28,29,29,30,30,31,31,32,32,33,33,34,34,35,35,36,36,37,37,38,38,39,39,40,40,41,41,42,42,43,43,44,44,45,45,46,46,47,47,48,48,49,49,50,50,51,51,52,52,53,53,54,54,55,55,56,56,57,57,58,58,59,59,60,60,61,61,62,62],"right_children":[2,4,6,8,10,12,14,16,18,20,22,24,26,28,30,32,34,36,38,40,42,44,46,48,50,52,54,56,58,60,62,64,66,68,70,72,74,76,78,80,82,84,86,88,90,92,94,96,98,100,102,104,106,108,110,112,114,116,118,120,122,124,126,-1,-1,-1,-1,-1,-1,-1,-1,-1,-1,-1,-1,-1,-1,-1,-1,-1,-1,-1,-1,-1,-1,-1,-1,-1,-1,-1,-1,-1,-1,-1,-1,-1,-1,-1,-1,-1,-1,-1,-1,-1,-1,-1,-1,-1,-1,-1,-1,-1,-1,-1,-1,-1,-1,-1,-1,-1,-1,-1,-1,-1,-1,-1,-1],"split_conditions":[9.126507E1,5.2916668E1,1.3671458E2,-4.822222E1,6.9625E1,7.763333E1,1.931593E2,-6.84E1,-3.85E1,6.1125E1,8.8916664E1,-7.3833336E1,9.7129036E1,1.025E2,2.5338564E2,8.35E1,-5.657143E1,-4.7285713E1,3.5E1,-6.0333332E1,6.4E1,7.88E1,1.05666664E2,-9.35E1,6.25E1,8.56E1,1.18666664E2,-9.5666664E1,1.25E2,1.2933333E2,2.8537958E2,7.08E1,-9.35E1,6.35E1,4.68249E1,-5.6444443E1,4.094653E1,3.3333332E1,4.44E1,-6.707143E1,5.380443E1,6.0683277E1,6.628571E1,7.4375E1,-7.793617E1,5.459008E1,1.46E2,-1.115E2,-8.32E1,-5.84E1,7.05E1,8.1333336E1,9.075E1,1.09333336E2,-1.1275E2,-1.2236842E2,8.2666664E1,1.1364706E2,1.46E2,1.25E2,-1.64E2,1.63E2,-9.62E1,-2.548639E0,-3.6255815E0,-6.75466E0,-4.7879806E0,-9.183213E-1,-1.8897291E0,-1.0123595E0,4.7501364E-1,-6.291158E-1,8.134328E-1,6.334537E-1,2.0436168E0,4.2041836E0,2.7561488E0,2.414655E0,1.0964829E0,-1.9496564E0,-1.0463911E0,-1.093261E0,-1.647511E-1,-2.0163894E0,-1.28907E0,-1.942351E0,-2.3887544E0,-2.973779E0,-3.546915E0,-4.5513067E0,-3.9174366E0,-4.521164E0,-5.767011E0,-6.690928E0,-8.523654E0,-8.82745E0,-6.6253066E0,-5.149398E0,-3.7809188E0,-1.944932E0,3.8443407E-1,-2.2405596E0,-3.3804557E0,-4.109504E0,-4.711789E0,-5.2934422E0,-5.979882E0,-6.882413E0,-7.800008E0,-9.297319E0,-7.675953E0,-9.700724E0,-7.0832047E0,-3.3716125E0,-5.6256547E0,-7.2576103E0,-8.291103E0,-9.228053E0,-1.0630923E1,-6.719185E0,-9.627471E0,-1.1102491E1,-9.545397E0,-9.20255E0,-1.1000429E1,-9.941999E0,-1.12274065E1],"split_indices":[3,1,3,1,1,1,3,1,2,1,1,1,1,1,3,2,1,2,2,2,1,1,1,1,1,1,1,1,1,2,3,2,1,2,3,2,3,1,2,2,3,3,1,1,2,3,1,1,1,1,1,1,1,1,2,1,1,1,1,1,1,2,2,0,0,0,0,0,0,0,0,0,0,0,0,0,0,0,0,0,0,0,0,0,0,0,0,0,0,0,0,0,0,0,0,0,0,0,0,0,0,0,0,0,0,0,0,0,0,0,0,0,0,0,0,0,0,0,0,0,0,0,0,0,0,0,0],"split_type":[0,0,0,0,0,0,0,0,0,0,0,0,0,0,0,0,0,0,0,0,0,0,0,0,0,0,0,0,0,0,0,0,0,0,0,0,0,0,0,0,0,0,0,0,0,0,0,0,0,0,0,0,0,0,0,0,0,0,0,0,0,0,0,0,0,0,0,0,0,0,0,0,0,0,0,0,0,0,0,0,0,0,0,0,0,0,0,0,0,0,0,0,0,0,0,0,0,0,0,0,0,0,0,0,0,0,0,0,0,0,0,0,0,0,0,0,0,0,0,0,0,0,0,0,0,0,0],"sum_hessian":[1.6152457E7,1.0600759E7,5.551698E6,9.431018E6,1.169741E6,3.596134E6,1.955564E6,1.607099E6,7.823919E6,8.01401E5,3.6834E5,3.040014E6,5.5612E5,1.451015E6,5.04549E5,3.90902E5,1.216197E6,1.313075E6,6.510844E6,4.93259E5,3.08142E5,2.69592E5,9.8748E4,6.64762E5,2.375252E6,3.70102E5,1.86018E5,1.21995E6,2.31065E5,3.78061E5,1.26488E5,2.75621E5,1.15281E5,5.48433E5,6.67764E5,4.82515E5,8.3056E5,5.127394E6,1.38345E6,1.04591E5,3.88668E5,1.22624E5,1.85518E5,1.75676E5,9.3916E4,6.0898E4,3.785E4,2.16521E5,4.48241E5,1.852949E6,5.22303E5,1.93549E5,1.76553E5,1.32463E5,5.3555E4,2.87243E5,9.32707E5,1.39322E5,9.1743E4,3.18905E5,5.9156E4,6.3257E4,6.3231E4,1.26857E5,1.48764E5,5.6227E4,5.9054E4,3.8284E5,1.65593E5,6.8461E4,5.99303E5,6.3736E4,4.18779E5,8.8344E4,7.42216E5,4.507229E6,6.20165E5,9.52893E5,4.30557E5,1.9839E4,8.4752E4,5.4704E4,3.33964E5,2.4202E4,9.8422E4,8.526E4,1.00258E5,1.05918E5,6.9758E4,6.0586E4,3.333E4,1.1069E4,4.9829E4,3.0595E4,7.255E3,7.0049E4,1.46472E5,1.85774E5,2.62467E5,5.6665E5,1.286299E6,2.94663E5,2.2764E5,9.7548E4,9.6001E4,9.2041E4,8.4512E4,9.5185E4,3.7278E4,4.7214E4,6.341E3,9.5349E4,1.91894E5,7.30476E5,2.02231E5,8.2635E4,5.6687E4,5.5304E4,3.6439E4,2.47587E5,7.1318E4,2.0755E4,3.8401E4,5.5164E4,8.093E3,2.1639E4,4.1592E4],"tree_param":{"num_deleted":"0","num_feature":"4","num_nodes":"127","size_leaf_vector":"1"}},{"base_weights":[3.6479343E-2,1.5997343E1,-1.0062801E2,-8.411867E1,4.0184402E1,-7.3149124E1,-1.4695496E2,-1.365271E2,-5.306276E1,5.128036E1,-8.464218E0,-5.7052425E1,-8.9205376E1,-1.2846861E2,-1.7660892E2,-1.7238521E2,-1.1514369E2,-7.1504654E1,-3.610186E1,6.4920395E1,1.0212182E1,-3.601389E1,1.5587308E0,-4.924912E1,-6.3499763E1,-8.079382E1,-9.939884E1,-1.1772622E2,-1.3921323E2,-1.5483125E2,-1.8907843E2,-1.5964844E2,-1.976235E2,-1.2948853E2,-1.05538155E2,-8.419066E1,-6.3513515E1,-5.2432735E1,-2.9700747E1,3.4766068E1,9.187563E1,-2.4016562E1,2.3873219E1,-2.6019253E1,-4.713516E1,2.083259E1,-1.632892E1,-6.2932026E1,-4.4262478E1,-7.260071E1,-6.0479404E1,-7.920586E1,-1.125805E2,-9.732796E1,-1.3460312E2,-1.1551371E2,-1.506915E2,-1.1990798E2,-1.4661179E2,-1.4069576E2,-1.8238983E2,-1.7670023E2,-2.1625032E2,-6.7969794E0,-8.510479E0,-8.722981E0,-1.1016452E1,-5.0760355E0,-6.638752E0,-5.1809173E0,-7.171688E0,-3.1984978E0,-4.343045E0,-2.6404083E0,-3.3653767E0,-1.775278E0,-2.822339E0,-2.0064056E0,-1.0971634E0,2.133113E0,1.4028095E-1,5.2479873E0,3.0225313E0,-1.7760781E0,-5.343396E-1,2.8406256E-1,2.2409863E0,-1.8512812E0,-6.871179E-1,-2.6572275E0,-1.903249E0,1.5254439E0,6.73642E-1,-2.7000406E-1,-1.2998557E0,-3.3564155E0,-2.936059E0,-2.0833547E0,-3.1020882E0,-3.665961E0,-2.110828E0,-2.9151459E0,-4.056726E0,-3.8058407E0,-4.2673426E0,-5.1978617E0,-7.0847955E0,-4.6665792E0,-5.165932E0,-6.276049E0,-8.102241E0,-5.1356344E0,-5.9402E0,-7.0381417E0,-8.139579E0,-5.4894037E0,-6.3639426E0,-7.183497E0,-9.064879E0,-6.1247487E0,-7.3970485E0,-8.632494E0,-9.988757E0,-8.416743E0,-9.736783E0,-1.0377499E1,-1.20339365E1],"categories":[],"categories_nodes":[],"categories_segments":[],"categories_sizes":[],"default_left":[0,0,0,0,0,0,0,0,0,0,0,0,0,0,0,0,0,0,0,0,0,0,0,0,0,0,0,0,0,0,0,0,0,0,0,0,0,0,0,0,0,0,0,0,0,0,0,0,0,0,0,0,0,0,0,0,0,0,0,0,0,0,0,0,0,0,0,0,0,0,0,0,0,0,0,0,0,0,0,0,0,0,0,0,0,0,0,0,0,0,0,0,0,0,0,0,0,0,0,0,0,0,0,0,0,0,0,0,0,0,0,0,0,0,0,0,0,0,0,0,0,0,0,0,0,0,0],"id":2,"left_children":[1,3,5,7,9,11,13,15,17,19,21,23,25,27,29,31,33,35,37,39,41,43,45,47,49,51,53,55,57,59,61,63,65,67,69,71,73,75,77,79,81,83,85,87,89,91,93,95,97,99,101,103,105,107,109,111,113,115,117,119,121,123,125,-1,-1,-1,-1,-1,-1,-1,-1,-1,-1,-1,-1,-1,-1,-1,-1,-1,-1,-1,-1,-1,-1,-1,-1,-1,-1,-1,-1,-1,-1,-1,-1,-1,-1,-1,-1,-1,-1,-1,-1,-1,-1,-1,-1,-1,-1,-1,-1,-1,-1,-1,-1,-1,-1,-1,-1,-1,-1,-1,-1,-1,-1,-1,-1],"loss_changes":[2.5949028E10,3.3756572E10,2.8137329E9,4.4148654E9,6.0607836E9,3.585669E8,4.5109862E8,7.7387366E8,5.327529E8,5.121372E9,5.758004E8,3.4852864E7,5.954611E7,5.849344E7,8.57856E7,1.2116787E8,8.710554E7,8.271642E7,9.274701E7,5.578416E9,1.0658679E9,6.182963E7,5.2714182E8,2.138464E7,1.0423808E7,1.9199488E7,2.2879744E7,1.8471168E7,3.6179456E7,4.479821E7,6.754662E7,6.272051E7,6.6468864E7,2.3293696E7,2.7535616E7,1.7021696E7,2.0330496E7,1.6973568E7,5.1558976E7,8.174912E8,1.489965E9,9.971885E7,6.208232E8,3.9587584E7,1.434912E7,5.2412416E7,8.379142E7,1.475392E6,1.059824E7,2.060512E6,1.2800576E7,6.868992E6,4.53064E6,7.090688E6,4.326944E6,9.993472E6,1.892096E6,5.223872E6,1.8668544E7,1.0011648E7,6.570752E6,2.0796928E7,1.331584E7,0E0,0E0,0E0,0E0,0E0,0E0,0E0,0E0,0E0,0E0,0E0,0E0,0E0,0E0,0E0,0E0,0E0,0E0,0E0,0E0,0E0,0E0,0E0,0E0,0E0,0E0,0E0,0E0,0E0,0E0,0E0,0E0,0E0,0E0,0E0,0E0,0E0,0E0,0E0,0E0,0E0,0E0,0E0,0E0,0E0,0E0,0E0,0E0,0E0,0E0,0E0,0E0,0E0,0E0,0E0,0E0,0E0,0E0,0E0,0E0,0E0,0E0,0E0,0E0],"parents":[2147483647,0,0,1,1,2,2,3,3,4,4,5,5,6,6,7,7,8,8,9,9,10,10,11,11,12,12,13,13,14,14,15,15,16,16,17,17,18,18,19,19,20,20,21,21,22,22,23,23,24,24,25,25,26,26,27,27,28,28,29,29,30,30,31,31,32,32,33,33,34,34,35,35,36,36,37,37,38,38,39,39,40,40,41,41,42,42,43,43,44,44,45,45,46,46,47,47,48,48,49,49,50,50,51,51,52,52,53,53,54,54,55,55,56,56,57,57,58,58,59,59,60,60,61,61,62,62],"right_children":[2,4,6,8,10,12,14,16,18,20,22,24,26,28,30,32,34,36,38,40,42,44,46,48,50,52,54,56,58,60,62,64,66,68,70,72,74,76,78,80,82,84,86,88,90,92,94,96,98,100,102,104,106,108,110,112,114,116,118,120,122,124,126,-1,-1,-1,-1,-1,-1,-1,-1,-1,-1,-1,-1,-1,-1,-1,-1,-1,-1,-1,-1,-1,-1,-1,-1,-1,-1,-1,-1,-1,-1,-1,-1,-1,-1,-1,-1,-1,-1,-1,-1,-1,-1,-1,-1,-1,-1,-1,-1,-1,-1,-1,-1,-1,-1,-1,-1,-1,-1,-1,-1,-1,-1,-1,-1],"split_conditions":[6.628571E1,-6.0333332E1,9.2666664E1,-8.62E1,4.5666668E1,7.65E1,1.18666664E2,-1.115E2,-7.1E1,4E1,3.3E1,7.05E1,8.4111115E1,1.025E2,2.1E1,1.41E2,-9.814286E1,-7.928571E1,3.4E1,3E1,3.2E1,5.53E1,5.47E1,3.3E1,3.1E1,9.8E1,9E1,8.2E1,2.4E1,1.6933333E2,1.46E2,2.3E1,2.1E1,9.0333336E1,9.2E1,7.175E1,6.9E1,5.6857143E1,-6.6E1,2.8E1,3.276923E1,2.2E1,-4.9285713E1,2.3E1,2.5E1,4.95E1,5.975E1,2.2E1,9.2E1,-4.8375E1,9.4E1,8.1333336E1,1.24E2,8.8916664E1,1.15E2,2.2E1,9.6E1,1.6E1,7.8E1,1.3E1,1.5E1,4.6E1,4.2E1,-6.7969794E0,-8.510479E0,-8.722981E0,-1.1016452E1,-5.0760355E0,-6.638752E0,-5.1809173E0,-7.171688E0,-3.1984978E0,-4.343045E0,-2.6404083E0,-3.3653767E0,-1.775278E0,-2.822339E0,-2.0064056E0,-1.0971634E0,2.133113E0,1.4028095E-1,5.2479873E0,3.0225313E0,-1.7760781E0,-5.343396E-1,2.8406256E-1,2.2409863E0,-1.8512812E0,-6.871179E-1,-2.6572275E0,-1.903249E0,1.5254439E0,6.73642E-1,-2.7000406E-1,-1.2998557E0,-3.3564155E0,-2.936059E0,-2.0833547E0,-3.1020882E0,-3.665961E0,-2.110828E0,-2.9151459E0,-4.056726E0,-3.8058407E0,-4.2673426E0,-5.1978617E0,-7.0847955E0,-4.6665792E0,-5.165932E0,-6.276049E0,-8.102241E0,-5.1356344E0,-5.9402E0,-7.0381417E0,-8.139579E0,-5.4894037E0,-6.3639426E0,-7.183497E0,-9.064879E0,-6.1247487E0,-7.3970485E0,-8.632494E0,-9.988757E0,-8.416743E0,-9.736783E0,-1.0377499E1,-1.20339365E1],"split_indices":[1,1,1,1,1,1,1,1,1,2,0,1,1,1,0,2,1,1,0,0,0,1,1,0,0,0,0,0,0,1,1,0,0,2,0,2,2,2,1,1,1,0,1,0,0,1,1,0,0,2,0,1,0,1,0,0,0,0,0,0,0,0,0,0,0,0,0,0,0,0,0,0,0,0,0,0,0,0,0,0,0,0,0,0,0,0,0,0,0,0,0,0,0,0,0,0,0,0,0,0,0,0,0,0,0,0,0,0,0,0,0,0,0,0,0,0,0,0,0,0,0,0,0,0,0,0,0],"split_type":[0,0,0,0,0,0,0,0,0,0,0,0,0,0,0,0,0,0,0,0,0,0,0,0,0,0,0,0,0,0,0,0,0,0,0,0,0,0,0,0,0,0,0,0,0,0,0,0,0,0,0,0,0,0,0,0,0,0,0,0,0,0,0,0,0,0,0,0,0,0,0,0,0,0,0,0,0,0,0,0,0,0,0,0,0,0,0,0,0,0,0,0,0,0,0,0,0,0,0,0,0,0,0,0,0,0,0,0,0,0,0,0,0,0,0,0,0,0,0,0,0,0,0,0,0,0,0],"sum_hessian":[1.6150588E7,1.3940286E7,2.210302E6,2.712519E6,1.1227767E7,1.387379E6,8.22923E5,1.009289E6,1.70323E6,9.142509E6,2.085258E6,6.92819E5,6.9456E5,5.06916E5,3.16007E5,3.77032E5,6.32257E5,8.15988E5,8.87242E5,6.863068E6,2.279441E6,5.56267E5,1.528991E6,3.13452E5,3.79367E5,3.80546E5,3.14014E5,2.5349E5,2.53426E5,1.15064E5,2.00943E5,2.50581E5,1.26451E5,2.53568E5,3.78689E5,3.15353E5,5.00635E5,2.49837E5,6.37405E5,3.239312E6,3.623756E6,6.50233E5,1.629208E6,2.92975E5,2.63292E5,7.35978E5,7.93013E5,8.372E4,2.29732E5,9.4524E4,2.84843E5,3.62443E5,1.8103E4,2.96572E5,1.7442E4,2.37551E5,1.5939E4,7.0219E4,1.83207E5,7.6058E4,3.9006E4,1.38058E5,6.2885E4,7.7227E4,1.73354E5,6.2598E4,6.3853E4,2.6667E4,2.26901E5,3.60433E5,1.8256E4,3.6789E4,2.78564E5,1.31004E5,3.69631E5,4.7891E4,2.01946E5,2.71909E5,3.65496E5,2.597556E6,6.41756E5,2.558498E6,1.065258E6,3.49004E5,3.01229E5,8.71936E5,7.57272E5,1.5448E5,1.38495E5,1.58364E5,1.04928E5,3.17949E5,4.18029E5,3.72239E5,4.20774E5,4.1925E4,4.1795E4,2.00471E5,2.9261E4,9.2339E4,2.185E3,2.57693E5,2.715E4,2.41152E5,1.21291E5,1.397E4,4.133E3,1.77907E5,1.18665E5,1.3109E4,4.333E3,4.858E4,1.88971E5,8.762E3,7.177E3,2.9598E4,4.0621E4,1.68888E5,1.4319E4,2.1661E4,5.4397E4,2.5007E4,1.3999E4,9.432E4,4.3738E4,4.6377E4,1.6508E4],"tree_param":{"num_deleted":"0","num_feature":"4","num_nodes":"127","size_leaf_vector":"1"}},{"base_weights":[-1.9978426E-2,3.5602757E1,-6.923329E1,-3.2664062E1,4.496144E1,-4.7084553E1,-1.1589704E2,-7.600518E1,-1.5751343E1,5.93307E1,-2.0614883E1,-1.0824201E2,-3.6152992E1,-1.0237293E2,-1.5649667E2,-1.06839714E2,-6.357762E1,-3.802704E1,-1.1462785E0,3.1046606E1,8.641429E1,-4.234411E0,-6.769145E1,-1.3797198E2,-9.1009995E1,-1.8906443E1,-9.9099266E1,-1.5720671E2,-9.241757E1,-1.4481061E2,-1.8565231E2,-1.278713E2,-9.70262E1,-7.53459E1,-5.6189922E1,-4.548296E1,-2.6914751E1,-1.8838062E1,1.1367011E1,4.7382874E1,6.1138706E0,1.2100283E2,6.7876175E1,-3.1468163E1,1.168498E1,-5.4186134E1,-1.0266179E2,-1.6408113E2,-1.2732031E2,-1.0013861E2,-8.080529E1,-5.10349E1,-8.748952E0,-8.203143E1,-1.3652234E2,-1.7571425E2,-1.4132828E2,-7.59542E1,-1.4754958E2,-1.3762532E2,-1.8129315E2,-1.6921977E2,-2.1812952E2,-5.831781E0,-7.191949E0,-4.0222716E0,-5.0612035E0,-3.86044E0,-2.9643369E0,-3.2344987E0,-2.4504735E0,-2.7851167E0,-2.0100694E0,-2.0771244E0,-9.432969E-1,-1.3831999E0,-6.093706E-1,-8.574306E-2,7.684183E-1,1.3844413E0,3.790881E0,-5.74408E-1,1.1995142E0,4.997327E0,7.222187E0,2.1488066E0,3.906213E0,-2.0293987E0,-9.171672E-1,1.1949798E0,-2.9141647E-1,-3.2165012E0,-2.1867893E0,-4.5417786E0,-6.252805E0,-7.3040214E0,-8.83641E0,-6.8131776E0,-5.9997478E0,-4.950567E0,-6.841391E0,-3.9419048E0,-5.196911E0,-3.0275006E0,-1.9483486E0,2.4577034E-1,-1.8691744E0,-3.5703945E0,-4.852758E0,-6.1695137E0,-7.896438E0,-8.183942E0,-9.648235E0,-6.845262E0,-9.043914E0,-5.2289605E0,-3.3427246E0,-6.5062456E0,-8.788482E0,-8.650044E0,-6.3307934E0,-8.346452E0,-1.0380259E1,-7.7977495E0,-9.045787E0,-9.916858E0,-1.2144588E1],"categories":[],"categories_nodes":[],"categories_segments":[],"categories_sizes":[],"default_left":[0,0,0,0,0,0,0,0,0,0,0,0,0,0,0,0,0,0,0,0,0,0,0,0,0,0,0,0,0,0,0,0,0,0,0,0,0,0,0,0,0,0,0,0,0,0,0,0,0,0,0,0,0,0,0,0,0,0,0,0,0,0,0,0,0,0,0,0,0,0,0,0,0,0,0,0,0,0,0,0,0,0,0,0,0,0,0,0,0,0,0,0,0,0,0,0,0,0,0,0,0,0,0,0,0,0,0,0,0,0,0,0,0,0,0,0,0,0,0,0,0,0,0,0,0,0,0],"id":3,"left_children":[1,3,5,7,9,11,13,15,17,19,21,23,25,27,29,31,33,35,37,39,41,43,45,47,49,51,53,55,57,59,61,63,65,67,69,71,73,75,77,79,81,83,85,87,89,91,93,95,97,99,101,103,105,107,109,111,113,115,117,119,121,123,125,-1,-1,-1,-1,-1,-1,-1,-1,-1,-1,-1,-1,-1,-1,-1,-1,-1,-1,-1,-1,-1,-1,-1,-1,-1,-1,-1,-1,-1,-1,-1,-1,-1,-1,-1,-1,-1,-1,-1,-1,-1,-1,-1,-1,-1,-1,-1,-1,-1,-1,-1,-1,-1,-1,-1,-1,-1,-1,-1,-1,-1,-1,-1,-1],"loss_changes":[3.98176E10,6.8117975E9,5.6715653E9,9.4223846E8,8.835355E9,2.4878167E9,9.697956E8,1.382542E8,3.0081427E8,5.8917417E9,1.2996122E9,2.890757E8,3.4272049E9,7.2324915E8,1.503447E8,2.1379328E7,2.2353728E7,3.0335744E7,1.23634536E8,1.5323853E9,2.5192817E9,5.4205357E8,2.0545754E8,5.756237E7,3.3270016E7,8.0868384E8,4.336517E8,5.9802624E7,1.01778534E9,8.256512E7,6.735565E7,5.898624E6,4.911104E6,2.962368E6,9.639616E6,1.1825056E7,1.7309936E7,1.358008E7,1.7122464E7,1.2728422E9,4.6861658E8,6.766776E8,6.527416E8,5.520717E7,1.6879197E8,3.3266496E7,3.2087552E7,1.3631744E7,9.618432E6,7.784704E6,7.66784E6,6.834765E7,7.366757E8,7.441434E7,5.976115E7,1.948544E7,1.9144192E7,2.2491494E8,1.2676966E8,1.0249626E8,1.955776E7,1.2981504E7,2.0743424E7,0E0,0E0,0E0,0E0,0E0,0E0,0E0,0E0,0E0,0E0,0E0,0E0,0E0,0E0,0E0,0E0,0E0,0E0,0E0,0E0,0E0,0E0,0E0,0E0,0E0,0E0,0E0,0E0,0E0,0E0,0E0,0E0,0E0,0E0,0E0,0E0,0E0,0E0,0E0,0E0,0E0,0E0,0E0,0E0,0E0,0E0,0E0,0E0,0E0,0E0,0E0,0E0,0E0,0E0,0E0,0E0,0E0,0E0,0E0,0E0,0E0,0E0,0E0,0E0],"parents":[2147483647,0,0,1,1,2,2,3,3,4,4,5,5,6,6,7,7,8,8,9,9,10,10,11,11,12,12,13,13,14,14,15,15,16,16,17,17,18,18,19,19,20,20,21,21,22,22,23,23,24,24,25,25,26,26,27,27,28,28,29,29,30,30,31,31,32,32,33,33,34,34,35,35,36,36,37,37,38,38,39,39,40,40,41,41,42,42,43,43,44,44,45,45,46,46,47,47,48,48,49,49,50,50,51,51,52,52,53,53,54,54,55,55,56,56,57,57,58,58,59,59,60,60,61,61,62,62],"right_children":[2,4,6,8,10,12,14,16,18,20,22,24,26,28,30,32,34,36,38,40,42,44,46,48,50,52,54,56,58,60,62,64,66,68,70,72,74,76,78,80,82,84,86,88,90,92,94,96,98,100,102,104,106,108,110,112,114,116,118,120,122,124,126,-1,-1,-1,-1,-1,-1,-1,-1,-1,-1,-1,-1,-1,-1,-1,-1,-1,-1,-1,-1,-1,-1,-1,-1,-1,-1,-1,-1,-1,-1,-1,-1,-1,-1,-1,-1,-1,-1,-1,-1,-1,-1,-1,-1,-1,-1,-1,-1,-1,-1,-1,-1,-1,-1,-1,-1,-1,-1,-1,-1,-1,-1,-1,-1],"split_conditions":[9.180097E1,-5.1125E1,1.4096135E2,-6.9666664E1,4.7E1,-7.793617E1,1.9877164E2,-8.8E1,3.4E1,3.2E1,6.65E1,-9.62E1,7.375E1,-1.04833336E2,2.5338564E2,-1.085E2,-7.793617E1,2.4E1,-5.9E1,4.14139E1,5.303301E1,3.3E1,8.35E1,-1.18E2,-8.470588E1,-6.1E1,9.45E1,-1.2428571E2,9.7E1,1.2933333E2,4.4E1,1.4E1,1.2E1,5.4E1,3E1,-6.175E1,-6.1E1,-6.392857E1,4.4E1,1.8E1,2.2E1,4.8E1,4.8E1,2.3E1,5.5666668E1,3.3E1,9.9666664E1,2E1,-1.04833336E2,9.6E1,8.8E1,-6.790909E1,5.746154E1,8.35E1,1.10333336E2,3.2E1,7.2E1,-8.18E1,1.2130556E2,-1.2428571E2,3.5E1,2.1E1,2.8537958E2,-5.831781E0,-7.191949E0,-4.0222716E0,-5.0612035E0,-3.86044E0,-2.9643369E0,-3.2344987E0,-2.4504735E0,-2.7851167E0,-2.0100694E0,-2.0771244E0,-9.432969E-1,-1.3831999E0,-6.093706E-1,-8.574306E-2,7.684183E-1,1.3844413E0,3.790881E0,-5.74408E-1,1.1995142E0,4.997327E0,7.222187E0,2.1488066E0,3.906213E0,-2.0293987E0,-9.171672E-1,1.1949798E0,-2.9141647E-1,-3.2165012E0,-2.1867893E0,-4.5417786E0,-6.252805E0,-7.3040214E0,-8.83641E0,-6.8131776E0,-5.9997478E0,-4.950567E0,-6.841391E0,-3.9419048E0,-5.196911E0,-3.0275006E0,-1.9483486E0,2.4577034E-1,-1.8691744E0,-3.5703945E0,-4.852758E0,-6.1695137E0,-7.896438E0,-8.183942E0,-9.648235E0,-6.845262E0,-9.043914E0,-5.2289605E0,-3.3427246E0,-6.5062456E0,-8.788482E0,-8.650044E0,-6.3307934E0,-8.346452E0,-1.0380259E1,-7.7977495E0,-9.045787E0,-9.916858E0,-1.2144588E1],"split_indices":[3,2,3,2,2,2,3,2,0,0,2,2,2,2,3,2,2,0,2,3,3,0,2,2,2,2,2,2,2,2,0,0,0,0,0,2,2,2,0,0,0,0,0,0,2,0,2,0,2,0,0,2,2,2,2,0,0,2,2,2,0,0,3,0,0,0,0,0,0,0,0,0,0,0,0,0,0,0,0,0,0,0,0,0,0,0,0,0,0,0,0,0,0,0,0,0,0,0,0,0,0,0,0,0,0,0,0,0,0,0,0,0,0,0,0,0,0,0,0,0,0,0,0,0,0,0,0],"split_type":[0,0,0,0,0,0,0,0,0,0,0,0,0,0,0,0,0,0,0,0,0,0,0,0,0,0,0,0,0,0,0,0,0,0,0,0,0,0,0,0,0,0,0,0,0,0,0,0,0,0,0,0,0,0,0,0,0,0,0,0,0,0,0,0,0,0,0,0,0,0,0,0,0,0,0,0,0,0,0,0,0,0,0,0,0,0,0,0,0,0,0,0,0,0,0,0,0,0,0,0,0,0,0,0,0,0,0,0,0,0,0,0,0,0,0,0,0,0,0,0,0,0,0,0,0,0,0],"sum_hessian":[1.6149466E7,1.0661963E7,5.487503E6,1.285427E6,9.376536E6,3.721237E6,1.766266E6,3.60807E5,9.2462E5,7.691216E6,1.68532E6,5.64286E5,3.156951E6,1.324925E6,4.41341E5,1.03644E5,2.57163E5,3.66156E5,5.58464E5,3.762227E6,3.928989E6,1.250281E6,4.35039E5,2.07054E5,3.57232E5,2.478007E6,6.78944E5,2.03583E5,1.121342E6,3.15064E5,1.26277E5,3.2971E4,7.0673E4,9.9174E4,1.57989E5,2.19127E5,1.47029E5,2.31359E5,3.27105E5,2.272955E6,1.489272E6,1.370987E6,2.558002E6,4.61234E5,7.89047E5,3.13839E5,1.212E5,5.9991E4,1.47063E5,1.88553E5,1.68679E5,5.9524E5,1.882767E6,4.66285E5,2.12659E5,9.4004E4,1.09579E5,8.63491E5,2.57851E5,2.63226E5,5.1838E4,8.3855E4,4.2422E4,1.9358E4,1.3613E4,1.4282E4,5.6391E4,8.8862E4,1.0312E4,7.2343E4,8.5646E4,7.4659E4,1.44468E5,5.2185E4,9.4844E4,9.9419E4,1.3194E5,7.6617E4,2.50488E5,1.342875E6,9.3008E5,7.50395E5,7.38877E5,7.22232E5,6.48755E5,7.45834E5,1.812168E6,2.72137E5,1.89097E5,4.64843E5,3.24204E5,1.59252E5,1.54587E5,7.9318E4,4.1882E4,2.4761E4,3.523E4,6.6211E4,8.0852E4,1.82936E5,5.617E3,1.55463E5,1.3216E4,3.3282E5,2.6242E5,1.274553E6,6.08214E5,2.73145E5,1.9314E5,1.31807E5,8.0852E4,5.5378E4,3.8626E4,9.8561E4,1.1018E4,2.08283E5,6.55208E5,1.59421E5,9.843E4,6.2473E4,2.00753E5,3.3537E4,1.8301E4,3.9299E4,4.4556E4,2.3582E4,1.884E4],"tree_param":{"num_deleted":"0","num_feature":"4","num_nodes":"127","size_leaf_vector":"1"}},{"base_weights":[7.336067E-3,3.4755814E1,-6.407666E1,4.3394894E1,-3.3653336E1,-4.0970726E1,-1.0597748E2,-1.8752638E1,5.688872E1,-1.4897481E1,-7.0047676E1,-2.9945623E1,-9.929791E1,-9.2771965E1,-1.4557127E2,-6.0008823E1,-2.1061394E0,2.2603477E1,6.29515E1,-4.0953E0,-2.5886026E1,-5.7515602E1,-1.002878E2,-8.78493E1,-1.2156542E1,-8.401658E1,-1.3294435E2,-8.2191956E1,-1.4320256E2,-1.3134676E2,-1.6926485E2,-9.161223E1,-4.593855E1,-1.538189E1,9.353385E0,1.2885331E1,3.1966436E1,7.025196E1,3.609199E1,-2.0170496E1,-1.0723426E0,-2.0013971E1,-3.4127567E1,-5.0103638E1,-6.809843E1,-9.208624E1,-1.2358999E2,-1.2343769E2,-7.030052E1,-2.0513003E0,-4.1690426E1,-7.4155045E1,-9.68713E1,-1.2292506E2,-1.579276E2,-1.3235396E2,-6.3426907E1,-1.2907521E2,-1.6872302E2,-1.24333755E2,-1.7266393E2,-1.5901454E2,-1.8964279E2,-3.8550751E0,-5.682559E0,-2.7919416E0,-1.8457855E0,-5.2103347E-1,-1.2712296E0,-1.0259799E0,5.9035414E-1,-5.0687295E-1,7.9231346E-1,4.3993974E-1,1.7384456E0,3.7343647E0,2.5189135E0,5.1586866E-1,2.048803E0,-1.4545829E0,-7.6731634E-1,-7.8559375E-1,4.060794E-2,-1.3191345E0,-8.657675E-1,-2.0728147E0,-1.6286064E0,-2.3243039E0,-2.7179618E0,-3.2129045E0,-3.795754E0,-3.8927186E0,-4.793625E0,-7.3499064E0,-5.811717E0,-7.6386294E0,-5.591856E0,-4.166078E0,-2.9678555E0,-1.4412321E0,5.5649996E-1,-1.5619372E0,-2.6463923E0,-3.4593961E0,-4.050052E0,-4.5712643E0,-5.142116E0,-5.903301E0,-6.7683215E0,-8.50527E0,-7.434579E0,-8.362297E0,-5.9191837E0,-2.6903656E0,-4.503756E0,-5.899277E0,-6.967795E0,-7.949571E0,-9.178655E0,-5.6133547E0,-8.068121E0,-9.632617E0,-8.1478815E0,-7.7636666E0,-9.464845E0,-8.530194E0,-9.975714E0],"categories":[],"categories_nodes":[],"categories_segments":[],"categories_sizes":[],"default_left":[0,0,0,0,0,0,0,0,0,0,0,0,0,0,0,0,0,0,0,0,0,0,0,0,0,0,0,0,0,0,0,0,0,0,0,0,0,0,0,0,0,0,0,0,0,0,0,0,0,0,0,0,0,0,0,0,0,0,0,0,0,0,0,0,0,0,0,0,0,0,0,0,0,0,0,0,0,0,0,0,0,0,0,0,0,0,0,0,0,0,0,0,0,0,0,0,0,0,0,0,0,0,0,0,0,0,0,0,0,0,0,0,0,0,0,0,0,0,0,0,0,0,0,0,0,0,0],"id":4,"left_children":[1,3,5,7,9,11,13,15,17,19,21,23,25,27,29,31,33,35,37,39,41,43,45,47,49,51,53,55,57,59,61,63,65,67,69,71,73,75,77,79,81,83,85,87,89,91,93,95,97,99,101,103,105,107,109,111,113,115,117,119,121,123,125,-1,-1,-1,-1,-1,-1,-1,-1,-1,-1,-1,-1,-1,-1,-1,-1,-1,-1,-1,-1,-1,-1,-1,-1,-1,-1,-1,-1,-1,-1,-1,-1,-1,-1,-1,-1,-1,-1,-1,-1,-1,-1,-1,-1,-1,-1,-1,-1,-1,-1,-1,-1,-1,-1,-1,-1,-1,-1,-1,-1,-1,-1,-1,-1],"loss_changes":[3.596727E10,6.189477E9,5.497989E9,7.7979894E9,8.015808E8,2.3538324E9,1.0553569E9,1.13923E9,1.5880622E9,9.198475E7,1.5134106E8,3.1709716E9,2.9917696E8,8.0760115E8,1.7012224E8,2.1205645E8,1.7981104E8,1.0445581E8,1.2729774E9,1.8989888E7,1.8590336E7,2.2144256E7,2.2350976E7,4.5183386E8,7.028329E8,5.0719744E7,4.5472E7,1.1776983E9,9.461248E7,9.138483E7,3.9527424E7,4.697395E7,2.9475072E7,2.7281936E7,4.6498068E7,3.840061E7,3.796109E7,4.499374E8,1.7465446E8,2.661616E6,9.074551E6,3.854976E6,1.820576E6,2.553888E6,3.486144E6,4.656448E6,5.22736E6,8.12928E7,6.904166E7,6.192167E8,7.050995E7,7.694592E6,5.639424E6,7.826176E6,5.825408E6,1.6601651E8,2.3340723E8,1.9246592E7,1.3486336E7,1.2048026E8,8.849024E6,1.4245888E7,1.1876608E7,0E0,0E0,0E0,0E0,0E0,0E0,0E0,0E0,0E0,0E0,0E0,0E0,0E0,0E0,0E0,0E0,0E0,0E0,0E0,0E0,0E0,0E0,0E0,0E0,0E0,0E0,0E0,0E0,0E0,0E0,0E0,0E0,0E0,0E0,0E0,0E0,0E0,0E0,0E0,0E0,0E0,0E0,0E0,0E0,0E0,0E0,0E0,0E0,0E0,0E0,0E0,0E0,0E0,0E0,0E0,0E0,0E0,0E0,0E0,0E0,0E0,0E0,0E0,0E0],"parents":[2147483647,0,0,1,1,2,2,3,3,4,4,5,5,6,6,7,7,8,8,9,9,10,10,11,11,12,12,13,13,14,14,15,15,16,16,17,17,18,18,19,19,20,20,21,21,22,22,23,23,24,24,25,25,26,26,27,27,28,28,29,29,30,30,31,31,32,32,33,33,34,34,35,35,36,36,37,37,38,38,39,39,40,40,41,41,42,42,43,43,44,44,45,45,46,46,47,47,48,48,49,49,50,50,51,51,52,52,53,53,54,54,55,55,56,56,57,57,58,58,59,59,60,60,61,61,62,62],"right_children":[2,4,6,8,10,12,14,16,18,20,22,24,26,28,30,32,34,36,38,40,42,44,46,48,50,52,54,56,58,60,62,64,66,68,70,72,74,76,78,80,82,84,86,88,90,92,94,96,98,100,102,104,106,108,110,112,114,116,118,120,122,124,126,-1,-1,-1,-1,-1,-1,-1,-1,-1,-1,-1,-1,-1,-1,-1,-1,-1,-1,-1,-1,-1,-1,-1,-1,-1,-1,-1,-1,-1,-1,-1,-1,-1,-1,-1,-1,-1,-1,-1,-1,-1,-1,-1,-1,-1,-1,-1,-1,-1,-1,-1,-1,-1,-1,-1,-1,-1,-1,-1,-1,-1,-1,-1,-1],"split_conditions":[9.022353E1,5.2333332E1,1.3537895E2,-4.718182E1,6.7916664E1,7.65E1,1.931593E2,-6.525E1,-3.95E1,5.8444443E1,8.56E1,-7.1888885E1,9.7129036E1,9.9666664E1,2.3532822E2,-8.053125E1,-5.48E1,-4.57E1,3.4E1,5.420609E1,6.325E1,7.542105E1,1.09333336E2,-9.15E1,5.975E1,8.56E1,1.18666664E2,-9.15E1,1.25E2,1.2933333E2,2.8537958E2,9.2333336E1,-7.1E1,6.0666668E1,4.2364082E1,-5.581818E1,4.094653E1,3.1E1,4.14139E1,4.094653E1,-6.1E1,-6.2444443E1,-6.9666664E1,7.142857E1,8.1333336E1,5.727565E1,-1.45E2,-1.115E2,-8.053125E1,-5.657143E1,6.7916664E1,8.1333336E1,9.075E1,1.09333336E2,-1.3271428E2,-1.2236842E2,7.763333E1,1.09333336E2,1.46E2,1.18666664E2,-1.64E2,1.63E2,-9.62E1,-3.8550751E0,-5.682559E0,-2.7919416E0,-1.8457855E0,-5.2103347E-1,-1.2712296E0,-1.0259799E0,5.9035414E-1,-5.0687295E-1,7.9231346E-1,4.3993974E-1,1.7384456E0,3.7343647E0,2.5189135E0,5.1586866E-1,2.048803E0,-1.4545829E0,-7.6731634E-1,-7.8559375E-1,4.060794E-2,-1.3191345E0,-8.657675E-1,-2.0728147E0,-1.6286064E0,-2.3243039E0,-2.7179618E0,-3.2129045E0,-3.795754E0,-3.8927186E0,-4.793625E0,-7.3499064E0,-5.811717E0,-7.6386294E0,-5.591856E0,-4.166078E0,-2.9678555E0,-1.4412321E0,5.5649996E-1,-1.5619372E0,-2.6463923E0,-3.4593961E0,-4.050052E0,-4.5712643E0,-5.142116E0,-5.903301E0,-6.7683215E0,-8.50527E0,-7.434579E0,-8.362297E0,-5.9191837E0,-2.6903656E0,-4.503756E0,-5.899277E0,-6.967795E0,-7.949571E0,-9.178655E0,-5.6133547E0,-8.068121E0,-9.632617E0,-8.1478815E0,-7.7636666E0,-9.464845E0,-8.530194E0,-9.975714E0],"split_indices":[3,1,3,1,1,1,3,1,2,1,1,1,1,1,3,1,1,2,2,3,1,1,1,1,1,1,1,1,1,2,3,2,1,2,3,2,3,1,3,3,2,2,2,1,1,3,2,1,1,1,1,1,1,1,2,1,1,1,1,1,1,2,2,0,0,0,0,0,0,0,0,0,0,0,0,0,0,0,0,0,0,0,0,0,0,0,0,0,0,0,0,0,0,0,0,0,0,0,0,0,0,0,0,0,0,0,0,0,0,0,0,0,0,0,0,0,0,0,0,0,0,0,0,0,0,0,0],"split_type":[0,0,0,0,0,0,0,0,0,0,0,0,0,0,0,0,0,0,0,0,0,0,0,0,0,0,0,0,0,0,0,0,0,0,0,0,0,0,0,0,0,0,0,0,0,0,0,0,0,0,0,0,0,0,0,0,0,0,0,0,0,0,0,0,0,0,0,0,0,0,0,0,0,0,0,0,0,0,0,0,0,0,0,0,0,0,0,0,0,0,0,0,0,0,0,0,0,0,0,0,0,0,0,0,0,0,0,0,0,0,0,0,0,0,0,0,0,0,0,0,0,0,0,0,0,0,0],"sum_hessian":[1.6151841E7,1.0473021E7,5.67882E6,9.298727E6,1.174294E6,3.660347E6,2.018473E6,1.65882E6,7.639907E6,7.74933E5,3.99361E5,3.078454E6,5.81893E5,1.51364E6,5.04833E5,4.76895E5,1.181925E6,1.147989E6,6.491918E6,3.90781E5,3.84152E5,2.82352E5,1.17009E5,7.23488E5,2.354966E6,4.00156E5,1.81737E5,1.251158E6,2.62482E5,3.15455E5,1.89378E5,1.46911E5,3.29984E5,5.4757E5,6.34355E5,5.63311E5,5.84678E5,5.104503E6,1.387415E6,6.1854E4,3.28927E5,2.24325E5,1.59827E5,1.66056E5,1.16296E5,8.6551E4,3.0458E4,2.38933E5,4.84555E5,1.754613E6,6.00353E5,2.26445E5,1.73711E5,1.2972E5,5.2017E4,3.4062E5,9.10538E5,1.68958E5,9.3524E4,2.69684E5,4.5771E4,1.26005E5,6.3373E4,8.8588E4,5.8323E4,1.57339E5,1.72645E5,3.66511E5,1.81059E5,4.8149E4,5.86206E5,6.4191E4,4.9912E5,6.3094E4,5.21584E5,4.173153E6,9.3135E5,2.21022E5,1.166393E6,2.1707E4,4.0147E4,3.7512E4,2.91415E5,6.6761E4,1.57564E5,2.7978E4,1.31849E5,8.9763E4,7.6293E4,7.7989E4,3.8307E4,1.8192E4,6.8359E4,7.278E3,2.318E4,6.7707E4,1.71226E5,2.2127E5,2.63285E5,5.78858E5,1.175755E6,3.11053E5,2.893E5,1.31237E5,9.5208E4,9.0858E4,8.2853E4,9.3294E4,3.6426E4,2.2428E4,2.9589E4,9.7384E4,2.43236E5,6.69031E5,2.41507E5,8.1287E4,8.7671E4,5.6506E4,3.7018E4,2.03404E5,6.628E4,1.4955E4,3.0816E4,1.12155E5,1.385E4,2.1645E4,4.1728E4],"tree_param":{"num_deleted":"0","num_feature":"4","num_nodes":"127","size_leaf_vector":"1"}},{"base_weights":[-4.5215834E-2,3.2981262E1,-6.0928604E1,1.09209E1,5.7856297E1,-3.9014908E1,-1.00659935E2,3.450999E1,-1.8988974E1,9.934527E1,3.112654E1,-2.8915277E1,-9.631224E1,-8.8112656E1,-1.3831995E2,1.3663075E1,6.337745E1,-1.2126776E1,-6.7599495E1,1.3357773E2,8.314944E1,3.969657E1,-2.019719E1,-8.4868454E1,-1.2965693E1,-8.159117E1,-1.26033585E2,-7.8025826E1,-1.3635754E2,-1.2481137E2,-1.6092485E2,-2.476944E1,2.2421558E1,9.2113594E1,4.6202126E1,-5.5150436E1,-2.1097713E0,-5.3841175E1,-9.461214E1,8.787043E1,1.4426515E2,6.3152954E1,1.04445175E2,-1.1881267E1,5.425035E1,-6.437581E0,-5.0971176E1,-1.2012759E2,-6.937552E1,-3.2416785E0,-4.191707E1,-7.1930855E1,-9.232355E1,-1.1451906E2,-1.4479947E2,-1.2767786E2,-6.110291E1,-1.2312559E2,-1.6026836E2,-1.6493074E2,-1.1796078E2,-1.4734613E2,-1.8646072E2,-2.586175E0,-7.731106E-1,1.7175305E0,-9.7672313E-1,4.9549804E0,2.5445943E0,2.632156E0,2.024072E-1,-4.5739193E0,-2.2118642E0,-9.951111E-1,7.096647E-1,-2.3885324E0,-3.1798685E0,-4.2489514E0,-5.841551E0,3.6491582E0,5.4819756E0,8.050568E0,4.925775E0,1.3891233E0,3.5807602E0,2.7901607E0,5.611887E0,-2.6420105E0,-2.728003E-2,3.1283739E0,1.4568126E0,1.4364108E-1,-8.091361E-1,-2.2086165E0,-4.3880277E0,-7.2511873E0,-5.418882E0,-4.1292095E0,-2.928932E0,-1.4678249E0,4.6778378E-1,-1.5873796E0,-2.6460059E0,-3.531122E0,-5.132362E0,-4.583875E0,-7.1760798E0,-5.023538E0,-5.955761E0,-6.1986995E0,-7.718713E0,-7.667091E0,-5.524573E0,-2.642996E0,-4.324903E0,-5.9534097E0,-7.800233E0,-7.256162E0,-8.787322E0,-7.6784286E0,-9.552863E0,-5.369812E0,-7.8975487E0,-6.896741E0,-8.188048E0,-8.6266985E0,-1.1136465E1],"categories":[],"categories_nodes":[],"categories_segments":[],"categories_sizes":[],"default_left":[0,0,0,0,0,0,0,0,0,0,0,0,0,0,0,0,0,0,0,0,0,0,0,0,0,0,0,0,0,0,0,0,0,0,0,0,0,0,0,0,0,0,0,0,0,0,0,0,0,0,0,0,0,0,0,0,0,0,0,0,0,0,0,0,0,0,0,0,0,0,0,0,0,0,0,0,0,0,0,0,0,0,0,0,0,0,0,0,0,0,0,0,0,0,0,0,0,0,0,0,0,0,0,0,0,0,0,0,0,0,0,0,0,0,0,0,0,0,0,0,0,0,0,0,0,0,0],"id":5,"left_children":[1,3,5,7,9,11,13,15,17,19,21,23,25,27,29,31,33,35,37,39,41,43,45,47,49,51,53,55,57,59,61,63,65,67,69,71,73,75,77,79,81,83,85,87,89,91,93,95,97,99,101,103,105,107,109,111,113,115,117,119,121,123,125,-1,-1,-1,-1,-1,-1,-1,-1,-1,-1,-1,-1,-1,-1,-1,-1,-1,-1,-1,-1,-1,-1,-1,-1,-1,-1,-1,-1,-1,-1,-1,-1,-1,-1,-1,-1,-1,-1,-1,-1,-1,-1,-1,-1,-1,-1,-1,-1,-1,-1,-1,-1,-1,-1,-1,-1,-1,-1,-1,-1,-1,-1,-1,-1],"loss_changes":[3.2477123E10,5.7461944E9,4.9455636E9,3.9155543E9,5.458129E9,2.1185674E9,9.541345E8,1.8671821E9,8.16256E8,1.06916454E9,1.3165775E9,2.7776087E9,2.4002509E8,7.370537E8,1.5407104E8,6.064452E8,6.4213555E8,9.241224E8,1.1249395E8,3.0253466E8,5.5745946E8,1.9254E9,1.8135773E8,3.771346E8,6.818537E8,3.8032384E7,3.9249664E7,1.0525829E9,8.284365E7,8.679424E7,6.5422336E7,8.388302E7,7.34351E8,1.4015846E8,2.2110362E8,1.6054387E8,5.0453146E8,1.1875008E7,2.1853312E7,3.8031424E7,3.845632E8,2.0207898E8,2.402903E8,2.6208675E8,4.178555E8,2.6853576E7,3.3095712E7,6.1636096E7,6.839885E7,5.964552E8,6.813779E7,7.753216E6,5.735552E6,7.259904E6,1.3758976E7,1.4043136E8,1.9556864E8,2.247424E7,2.184576E7,1.3645952E7,1.1396813E8,1.9014912E7,3.305728E7,0E0,0E0,0E0,0E0,0E0,0E0,0E0,0E0,0E0,0E0,0E0,0E0,0E0,0E0,0E0,0E0,0E0,0E0,0E0,0E0,0E0,0E0,0E0,0E0,0E0,0E0,0E0,0E0,0E0,0E0,0E0,0E0,0E0,0E0,0E0,0E0,0E0,0E0,0E0,0E0,0E0,0E0,0E0,0E0,0E0,0E0,0E0,0E0,0E0,0E0,0E0,0E0,0E0,0E0,0E0,0E0,0E0,0E0,0E0,0E0,0E0,0E0,0E0,0E0],"parents":[2147483647,0,0,1,1,2,2,3,3,4,4,5,5,6,6,7,7,8,8,9,9,10,10,11,11,12,12,13,13,14,14,15,15,16,16,17,17,18,18,19,19,20,20,21,21,22,22,23,23,24,24,25,25,26,26,27,27,28,28,29,29,30,30,31,31,32,32,33,33,34,34,35,35,36,36,37,37,38,38,39,39,40,40,41,41,42,42,43,43,44,44,45,45,46,46,47,47,48,48,49,49,50,50,51,51,52,52,53,53,54,54,55,55,56,56,57,57,58,58,59,59,60,60,61,61,62,62],"right_children":[2,4,6,8,10,12,14,16,18,20,22,24,26,28,30,32,34,36,38,40,42,44,46,48,50,52,54,56,58,60,62,64,66,68,70,72,74,76,78,80,82,84,86,88,90,92,94,96,98,100,102,104,106,108,110,112,114,116,118,120,122,124,126,-1,-1,-1,-1,-1,-1,-1,-1,-1,-1,-1,-1,-1,-1,-1,-1,-1,-1,-1,-1,-1,-1,-1,-1,-1,-1,-1,-1,-1,-1,-1,-1,-1,-1,-1,-1,-1,-1,-1,-1,-1,-1,-1,-1,-1,-1,-1,-1,-1,-1,-1,-1,-1,-1,-1,-1,-1,-1,-1,-1,-1,-1,-1,-1],"split_conditions":[9.022353E1,3.6E1,1.3537895E2,4.726502E1,6.105321E1,7.763333E1,1.931593E2,1.9E1,6.18E1,4.508141E1,5.53E1,-7.2833336E1,9.7129036E1,9.9666664E1,2.3532822E2,-2.9428572E1,3.0805843E1,-5.538889E1,8.1333336E1,-2.825E1,5.7E1,-5.2545456E1,6.7916664E1,-9.35E1,6.042857E1,8.56E1,1.1364706E2,-9.35E1,1.25E2,-1.3035294E2,4.5E1,-5.2545456E1,2.55E1,2.34E1,3.718182E1,-8.053125E1,2.4E1,7.142857E1,1.025E2,4.9E1,2.55E1,-4.1055557E1,-4E1,-6.922222E1,4.3E1,6.042857E1,8.4111115E1,-1.115E2,-8.1833336E1,-5.7166668E1,6.875E1,1.01E2,1.08E2,2.4E1,1.9E1,-1.163E2,7.88E1,7.2E1,2.8E1,3.9E1,1.25E2,2.8537958E2,2.8537958E2,-2.586175E0,-7.731106E-1,1.7175305E0,-9.7672313E-1,4.9549804E0,2.5445943E0,2.632156E0,2.024072E-1,-4.5739193E0,-2.2118642E0,-9.951111E-1,7.096647E-1,-2.3885324E0,-3.1798685E0,-4.2489514E0,-5.841551E0,3.6491582E0,5.4819756E0,8.050568E0,4.925775E0,1.3891233E0,3.5807602E0,2.7901607E0,5.611887E0,-2.6420105E0,-2.728003E-2,3.1283739E0,1.4568126E0,1.4364108E-1,-8.091361E-1,-2.2086165E0,-4.3880277E0,-7.2511873E0,-5.418882E0,-4.1292095E0,-2.928932E0,-1.4678249E0,4.6778378E-1,-1.5873796E0,-2.6460059E0,-3.531122E0,-5.132362E0,-4.583875E0,-7.1760798E0,-5.023538E0,-5.955761E0,-6.1986995E0,-7.718713E0,-7.667091E0,-5.524573E0,-2.642996E0,-4.324903E0,-5.9534097E0,-7.800233E0,-7.256162E0,-8.787322E0,-7.6784286E0,-9.552863E0,-5.369812E0,-7.8975487E0,-6.896741E0,-8.188048E0,-8.6266985E0,-1.1136465E1],"split_indices":[3,0,3,3,3,1,3,0,1,3,1,1,1,1,3,1,3,1,1,1,0,1,1,1,1,1,1,1,1,1,0,1,1,1,1,1,0,1,1,0,1,1,1,1,1,1,1,1,1,1,1,0,0,0,0,1,1,0,0,0,1,3,3,0,0,0,0,0,0,0,0,0,0,0,0,0,0,0,0,0,0,0,0,0,0,0,0,0,0,0,0,0,0,0,0,0,0,0,0,0,0,0,0,0,0,0,0,0,0,0,0,0,0,0,0,0,0,0,0,0,0,0,0,0,0,0,0],"split_type":[0,0,0,0,0,0,0,0,0,0,0,0,0,0,0,0,0,0,0,0,0,0,0,0,0,0,0,0,0,0,0,0,0,0,0,0,0,0,0,0,0,0,0,0,0,0,0,0,0,0,0,0,0,0,0,0,0,0,0,0,0,0,0,0,0,0,0,0,0,0,0,0,0,0,0,0,0,0,0,0,0,0,0,0,0,0,0,0,0,0,0,0,0,0,0,0,0,0,0,0,0,0,0,0,0,0,0,0,0,0,0,0,0,0,0,0,0,0,0,0,0,0,0,0,0,0,0],"sum_hessian":[1.6151632E7,1.0471382E7,5.68025E6,5.549671E6,4.921711E6,3.661025E6,2.019225E6,3.102676E6,2.446995E6,1.928445E6,2.993266E6,3.112411E6,5.48614E5,1.514604E6,5.04621E5,1.80162E6,1.301056E6,2.144293E6,3.02702E5,6.19348E5,1.309097E6,2.564968E6,4.28298E5,6.90399E5,2.422012E6,3.66894E5,1.8172E5,1.252698E6,2.61906E5,3.15867E5,1.88754E5,3.34374E5,1.467246E6,4.86719E5,8.14337E5,4.0496E5,1.739333E6,2.00556E5,1.02146E5,1.17375E5,5.01973E5,6.75146E5,6.33951E5,5.6448E5,2.000488E6,2.95967E5,1.32331E5,2.10754E5,4.79645E5,1.813055E6,6.08957E5,1.93095E5,1.73799E5,1.12623E5,6.9097E4,3.18426E5,9.34272E5,1.68607E5,9.3299E4,4.6066E4,2.69801E5,1.23232E5,6.5522E4,8.5823E4,2.48551E5,1.142428E6,3.24818E5,4.16185E5,7.0534E4,7.06401E5,1.07936E5,9.3548E4,3.11412E5,8.31677E5,9.07656E5,1.23634E5,7.6922E4,7.1257E4,3.0889E4,6.9708E4,4.7667E4,3.67464E5,1.34509E5,1.30343E5,5.44803E5,8.7538E4,5.46413E5,1.22359E5,4.42121E5,1.502799E6,4.97689E5,1.5136E5,1.44607E5,1.11692E5,2.0639E4,6.7571E4,1.43183E5,2.15725E5,2.6392E5,5.89987E5,1.223068E6,3.16468E5,2.92489E5,1.85209E5,7.886E3,1.71636E5,2.163E3,2.7769E4,8.4854E4,2.1767E4,4.733E4,1.27711E5,1.90715E5,7.05332E5,2.2894E5,1.5009E5,1.8517E4,4.7162E4,4.6137E4,3.2109E4,1.3957E4,2.13423E5,5.6378E4,7.8331E4,4.4901E4,4.7347E4,1.8175E4],"tree_param":{"num_deleted":"0","num_feature":"4","num_nodes":"127","size_leaf_vector":"1"}},{"base_weights":[-1.5242088E-2,3.031164E1,-5.9942074E1,-2.7720026E1,3.8669075E1,-4.1329407E1,-1.0060921E2,-6.5787605E1,-1.344757E1,5.2118618E1,-1.5417462E1,-9.156334E1,-3.1417341E1,-8.983026E1,-1.3834584E2,-9.967649E1,-5.7203197E1,-3.4166332E1,-1.1816554E-1,2.5944643E1,7.7558266E1,-1.2858361E0,-5.7398952E1,-1.1838733E2,-7.7106674E1,-1.6284798E1,-8.7620186E1,-1.3531729E2,-8.106062E1,-1.2749174E2,-1.5998642E2,-1.2783216E2,-9.438152E1,-6.905999E1,-4.9537186E1,-4.3598503E1,-2.6800827E1,-1.5309303E1,1.1517767E1,4.130311E1,5.1458645E0,1.12466576E2,6.3338074E1,-2.5207167E1,1.4180657E1,-4.592285E1,-8.941477E1,-1.4153334E2,-1.0883954E2,-8.595746E1,-6.883454E1,-4.235552E1,-8.088717E0,-7.4015114E1,-1.2144471E2,-1.5677689E2,-1.2447678E2,-6.5511246E1,-1.2475894E2,-1.22226036E2,-1.6326852E2,-1.4165755E2,-1.8417924E2,-7.374561E0,-5.917998E0,-3.6957881E0,-5.1065245E0,-3.707529E0,-3.202813E0,-2.8701155E0,-2.1411045E0,-1.9317073E0,-2.6602027E0,-1.9399235E0,-1.0269152E0,-1.2523527E0,-5.246791E-1,5.8865737E-2,8.1644154E-1,1.0690691E0,3.3095548E0,-7.158915E-1,9.60164E-1,4.7441964E0,6.913646E0,1.773784E0,3.6232457E0,-1.7641699E0,-6.6059715E-1,1.3414268E0,1.0960328E-2,-2.7890491E0,-1.8098135E0,-4.007369E0,-5.618026E0,-6.2196326E0,-7.6643767E0,-4.7559996E0,-5.667387E0,-4.251036E0,-6.491516E0,-3.361098E0,-4.559946E0,-2.5196686E0,-1.5991362E0,2.1932633E-1,-1.7411137E0,-3.2223058E0,-4.3776045E0,-5.669276E0,-7.406462E0,-7.326692E0,-8.906488E0,-5.5521955E0,-6.800303E0,-4.539267E0,-2.8857653E0,-5.482509E0,-7.5474353E0,-8.01495E0,-5.799303E0,-7.439809E0,-9.795572E0,-6.619851E0,-7.6424494E0,-8.4392E0,-1.0168666E1],"categories":[],"categories_nodes":[],"categories_segments":[],"categories_sizes":[],"default_left":[0,0,0,0,0,0,0,0,0,0,0,0,0,0,0,0,0,0,0,0,0,0,0,0,0,0,0,0,0,0,0,0,0,0,0,0,0,0,0,0,0,0,0,0,0,0,0,0,0,0,0,0,0,0,0,0,0,0,0,0,0,0,0,0,0,0,0,0,0,0,0,0,0,0,0,0,0,0,0,0,0,0,0,0,0,0,0,0,0,0,0,0,0,0,0,0,0,0,0,0,0,0,0,0,0,0,0,0,0,0,0,0,0,0,0,0,0,0,0,0,0,0,0,0,0,0,0],"id":6,"left_children":[1,3,5,7,9,11,13,15,17,19,21,23,25,27,29,31,33,35,37,39,41,43,45,47,49,51,53,55,57,59,61,63,65,67,69,71,73,75,77,79,81,83,85,87,89,91,93,95,97,99,101,103,105,107,109,111,113,115,117,119,121,123,125,-1,-1,-1,-1,-1,-1,-1,-1,-1,-1,-1,-1,-1,-1,-1,-1,-1,-1,-1,-1,-1,-1,-1,-1,-1,-1,-1,-1,-1,-1,-1,-1,-1,-1,-1,-1,-1,-1,-1,-1,-1,-1,-1,-1,-1,-1,-1,-1,-1,-1,-1,-1,-1,-1,-1,-1,-1,-1,-1,-1,-1,-1,-1,-1],"loss_changes":[2.9349298E10,5.200475E9,4.1073623E9,7.333897E8,6.8182026E9,1.85357E9,6.930186E8,1.0707533E8,2.7113008E8,4.9981235E9,1.1073756E9,2.378926E8,2.64429E9,5.2863488E8,8.889395E7,1.1078656E7,2.6691392E7,2.6700288E7,1.0560054E8,1.1818412E9,1.889577E9,5.166736E8,1.7271155E8,4.7463424E7,2.9180672E7,5.2342144E8,3.035044E8,4.981069E7,7.549256E8,4.7472896E7,5.6039424E7,2.174864E6,9.923456E6,2.932736E6,9.418208E6,8.034208E6,1.6214784E7,1.2151032E7,1.6829532E7,1.0551931E9,4.2998893E8,4.9992294E8,6.878044E8,6.6278464E7,1.4976514E8,3.3178688E7,2.636736E7,1.2621312E7,9.39712E6,7.903616E6,7.425408E6,4.8848E7,6.21553E8,6.092237E7,4.066893E7,1.569664E7,2.2025728E7,1.6145664E8,1.1536333E8,5.219021E7,1.5249408E7,7.435648E6,1.6069376E7,0E0,0E0,0E0,0E0,0E0,0E0,0E0,0E0,0E0,0E0,0E0,0E0,0E0,0E0,0E0,0E0,0E0,0E0,0E0,0E0,0E0,0E0,0E0,0E0,0E0,0E0,0E0,0E0,0E0,0E0,0E0,0E0,0E0,0E0,0E0,0E0,0E0,0E0,0E0,0E0,0E0,0E0,0E0,0E0,0E0,0E0,0E0,0E0,0E0,0E0,0E0,0E0,0E0,0E0,0E0,0E0,0E0,0E0,0E0,0E0,0E0,0E0,0E0,0E0],"parents":[2147483647,0,0,1,1,2,2,3,3,4,4,5,5,6,6,7,7,8,8,9,9,10,10,11,11,12,12,13,13,14,14,15,15,16,16,17,17,18,18,19,19,20,20,21,21,22,22,23,23,24,24,25,25,26,26,27,27,28,28,29,29,30,30,31,31,32,32,33,33,34,34,35,35,36,36,37,37,38,38,39,39,40,40,41,41,42,42,43,43,44,44,45,45,46,46,47,47,48,48,49,49,50,50,51,51,52,52,53,53,54,54,55,55,56,56,57,57,58,58,59,59,60,60,61,61,62,62],"right_children":[2,4,6,8,10,12,14,16,18,20,22,24,26,28,30,32,34,36,38,40,42,44,46,48,50,52,54,56,58,60,62,64,66,68,70,72,74,76,78,80,82,84,86,88,90,92,94,96,98,100,102,104,106,108,110,112,114,116,118,120,122,124,126,-1,-1,-1,-1,-1,-1,-1,-1,-1,-1,-1,-1,-1,-1,-1,-1,-1,-1,-1,-1,-1,-1,-1,-1,-1,-1,-1,-1,-1,-1,-1,-1,-1,-1,-1,-1,-1,-1,-1,-1,-1,-1,-1,-1,-1,-1,-1,-1,-1,-1,-1,-1,-1,-1,-1,-1,-1,-1,-1,-1,-1,-1,-1,-1],"split_conditions":[9.232551E1,-5.057143E1,1.424774E2,-6.9666664E1,4.54E1,-7.675E1,2.0531232E2,-9.3888885E1,3.4E1,3.2E1,6.575E1,-9.62E1,7.478571E1,-1.04833336E2,2.5338564E2,-1.3271428E2,-7.9166664E1,2E1,-5.8333332E1,3.948617E1,4.9782864E1,3.5E1,8.35E1,-1.18E2,-8.470588E1,-6.0333332E1,9.7E1,-1.3271428E2,9.45E1,1.41E2,3.7E1,-1.6854546E2,1.2E1,-8.470588E1,3E1,6.442114E1,-6.1E1,-6.4666664E1,4.8E1,1.7E1,2E1,5E1,-3.95E1,2.4E1,5.3333332E1,3.3E1,1.0275E2,2E1,2.4E1,1.02E2,9.2E1,-6.707143E1,5.8714287E1,8.5E1,1.2130556E2,3.4E1,3.6E1,-8.32E1,1.2130556E2,-1.45E2,3.5E1,2.1E1,2.8537958E2,-7.374561E0,-5.917998E0,-3.6957881E0,-5.1065245E0,-3.707529E0,-3.202813E0,-2.8701155E0,-2.1411045E0,-1.9317073E0,-2.6602027E0,-1.9399235E0,-1.0269152E0,-1.2523527E0,-5.246791E-1,5.8865737E-2,8.1644154E-1,1.0690691E0,3.3095548E0,-7.158915E-1,9.60164E-1,4.7441964E0,6.913646E0,1.773784E0,3.6232457E0,-1.7641699E0,-6.6059715E-1,1.3414268E0,1.0960328E-2,-2.7890491E0,-1.8098135E0,-4.007369E0,-5.618026E0,-6.2196326E0,-7.6643767E0,-4.7559996E0,-5.667387E0,-4.251036E0,-6.491516E0,-3.361098E0,-4.559946E0,-2.5196686E0,-1.5991362E0,2.1932633E-1,-1.7411137E0,-3.2223058E0,-4.3776045E0,-5.669276E0,-7.406462E0,-7.326692E0,-8.906488E0,-5.5521955E0,-6.800303E0,-4.539267E0,-2.8857653E0,-5.482509E0,-7.5474353E0,-8.01495E0,-5.799303E0,-7.439809E0,-9.795572E0,-6.619851E0,-7.6424494E0,-8.4392E0,-1.0168666E1],"split_indices":[3,2,3,2,2,2,3,2,0,0,2,2,2,2,3,2,2,0,2,3,3,0,2,2,2,2,2,2,2,2,0,2,0,2,0,3,2,2,0,0,0,0,2,0,2,0,2,0,0,0,0,2,2,2,2,0,0,2,2,2,0,0,3,0,0,0,0,0,0,0,0,0,0,0,0,0,0,0,0,0,0,0,0,0,0,0,0,0,0,0,0,0,0,0,0,0,0,0,0,0,0,0,0,0,0,0,0,0,0,0,0,0,0,0,0,0,0,0,0,0,0,0,0,0,0,0,0],"split_type":[0,0,0,0,0,0,0,0,0,0,0,0,0,0,0,0,0,0,0,0,0,0,0,0,0,0,0,0,0,0,0,0,0,0,0,0,0,0,0,0,0,0,0,0,0,0,0,0,0,0,0,0,0,0,0,0,0,0,0,0,0,0,0,0,0,0,0,0,0,0,0,0,0,0,0,0,0,0,0,0,0,0,0,0,0,0,0,0,0,0,0,0,0,0,0,0,0,0,0,0,0,0,0,0,0,0,0,0,0,0,0,0,0,0,0,0,0,0,0,0,0,0,0,0,0,0,0],"sum_hessian":[1.614911E7,1.0722717E7,5.426393E6,1.349836E6,9.372881E6,3.722616E6,1.703777E6,3.68082E5,9.81754E5,7.506309E6,1.866572E6,6.13486E5,3.10913E6,1.325243E6,3.78534E5,7.4392E4,2.9369E5,3.84343E5,5.97411E5,3.699758E6,3.806551E6,1.396492E6,4.7008E5,2.14843E5,3.98643E5,2.449584E6,6.59546E5,2.142E5,1.111043E6,2.52098E5,1.26436E5,1.1772E4,6.262E4,1.1532E5,1.7837E5,1.68526E5,2.15817E5,2.5912E5,3.38291E5,2.128216E6,1.571542E6,1.1018E6,2.704751E6,5.48363E5,8.48129E5,3.46043E5,1.24037E5,6.2738E4,1.52105E5,1.92581E5,2.06062E5,5.85901E5,1.863683E6,4.70359E5,1.89187E5,7.1885E4,1.42315E5,8.19455E5,2.91588E5,2.19758E5,3.234E4,7.194E4,5.4496E4,3.823E3,7.949E3,1.7201E4,4.5419E4,5.7157E4,5.8163E4,8.2147E4,9.6223E4,1.11108E5,5.7418E4,7.4015E4,1.41802E5,8.5741E4,1.73379E5,1.07418E5,2.30873E5,1.182044E6,9.46172E5,6.59042E5,9.125E5,6.55317E5,4.46483E5,6.6738E5,2.037371E6,2.98019E5,2.50344E5,4.44998E5,4.03131E5,1.71857E5,1.74186E5,8.8356E4,3.5681E4,2.5526E4,3.7212E4,3.7625E4,1.1448E5,1.88558E5,4.023E3,1.92207E5,1.3855E4,3.30102E5,2.55799E5,1.270707E6,5.92976E5,2.7557E5,1.94789E5,1.45307E5,4.388E4,4.8586E4,2.3299E4,6.5736E4,7.6579E4,1.93176E5,6.26279E5,1.84916E5,1.06672E5,3.0942E4,1.88816E5,2.241E4,9.93E3,3.9373E4,3.2567E4,3.0246E4,2.425E4],"tree_param":{"num_deleted":"0","num_feature":"4","num_nodes":"127","size_leaf_vector":"1"}},{"base_weights":[-8.317183E-3,3.0824432E1,-5.313433E1,1.1474634E1,5.5767143E1,-3.2719814E1,-8.91545E1,3.0799797E1,-1.7130993E1,9.690079E1,3.3638355E1,-8.157333E1,-2.3633121E1,-7.626657E1,-1.20121735E2,1.3499868E1,5.9292976E1,-6.0024754E1,-1.1323041E1,1.3326988E2,8.4454605E1,-1.2903539E1,4.0611374E1,-1.0893136E2,-6.80603E1,-9.26848E0,-7.453608E1,-1.19604576E2,-6.7118225E1,-1.0657634E2,-1.4035924E2,2.1771511E1,-2.2297686E1,8.804735E1,4.20931E1,-8.786117E1,-4.9467133E1,-2.7726572E0,-5.212253E1,1.4267789E2,8.855777E1,6.697399E1,1.03454155E2,-3.7551346E1,-9.2427427E-1,5.3239178E1,-2.25047E0,-1.3860928E2,-1.0268469E2,-7.662018E1,-5.9111263E1,-3.3083046E1,-2.6333398E-1,-5.9985832E1,-1.05083534E2,-1.4024911E2,-1.0577011E2,-5.004014E1,-1.09329475E2,-9.962829E1,-1.4364996E2,-1.2984671E2,-1.6208517E2,-7.3514783E-1,1.7171735E0,-7.3938674E-1,-2.5856576E0,2.3928876E0,4.7350683E0,3.5258827E-1,2.4208345E0,-5.65293E0,-4.061088E0,-2.9886816E0,-2.1902072E0,-1.0345387E0,5.394719E-1,-2.0210655E0,-3.9762642E0,5.0015388E0,7.887227E0,5.24263E0,3.7761753E0,3.6732624E0,1.5530921E0,5.5769935E0,3.22556E0,-2.9020374E0,-1.428615E0,-4.3138838E-1,3.7590533E-1,1.4295748E0,3.0605242E0,4.739059E-1,-1.5978092E0,-6.0033813E0,-7.6444154E0,-5.5820346E0,-4.808575E0,-3.795838E0,-5.5414844E0,-2.868366E0,-3.9126356E0,-2.189567E0,-1.2577697E0,6.3307863E-1,-1.1780417E0,-2.4778984E0,-3.4914339E0,-4.687904E0,-6.245237E0,-8.015971E0,-6.5978503E0,-5.081182E0,-6.6437945E0,-3.6989484E0,-2.037525E0,-4.6791987E0,-6.723925E0,-6.9021883E0,-4.4477663E0,-6.6546793E0,-8.07754E0,-6.118291E0,-7.4767976E0,-7.5980425E0,-1.0155597E1],"categories":[],"categories_nodes":[],"categories_segments":[],"categories_sizes":[],"default_left":[0,0,0,0,0,0,0,0,0,0,0,0,0,0,0,0,0,0,0,0,0,0,0,0,0,0,0,0,0,0,0,0,0,0,0,0,0,0,0,0,0,0,0,0,0,0,0,0,0,0,0,0,0,0,0,0,0,0,0,0,0,0,0,0,0,0,0,0,0,0,0,0,0,0,0,0,0,0,0,0,0,0,0,0,0,0,0,0,0,0,0,0,0,0,0,0,0,0,0,0,0,0,0,0,0,0,0,0,0,0,0,0,0,0,0,0,0,0,0,0,0,0,0,0,0,0,0],"id":7,"left_children":[1,3,5,7,9,11,13,15,17,19,21,23,25,27,29,31,33,35,37,39,41,43,45,47,49,51,53,55,57,59,61,63,65,67,69,71,73,75,77,79,81,83,85,87,89,91,93,95,97,99,101,103,105,107,109,111,113,115,117,119,121,123,125,-1,-1,-1,-1,-1,-1,-1,-1,-1,-1,-1,-1,-1,-1,-1,-1,-1,-1,-1,-1,-1,-1,-1,-1,-1,-1,-1,-1,-1,-1,-1,-1,-1,-1,-1,-1,-1,-1,-1,-1,-1,-1,-1,-1,-1,-1,-1,-1,-1,-1,-1,-1,-1,-1,-1,-1,-1,-1,-1,-1,-1,-1,-1,-1],"loss_changes":[2.6454108E10,4.932135E9,4.3611853E9,3.1812884E9,4.0636426E9,1.6804314E9,8.5623706E8,1.6929738E9,5.7803437E8,7.0686106E8,9.4205824E8,2.194665E8,2.3338522E9,6.006221E8,1.7281536E8,6.327785E8,6.41706E8,8.131507E7,7.1289805E8,1.6747162E8,3.8640435E8,1.1167803E8,1.366408E9,3.6374016E7,3.0436736E7,5.338444E8,3.1222656E8,7.540019E7,9.017441E8,9.727539E7,5.771571E7,7.96007E8,8.860792E7,1.2986445E8,1.7990042E8,1.2719872E7,1.1706592E7,4.10559E8,1.135273E8,2.1134336E8,1.4692928E7,1.412544E8,1.7554022E8,2.2757008E7,1.6553568E7,3.8312806E8,2.0016342E8,9.01696E6,9.448064E6,4.879104E6,6.481024E6,5.798208E7,5.439091E8,4.8836096E7,5.0866176E7,1.761088E7,1.7756544E7,1.9804595E8,1.4266573E8,1.3040435E8,1.1243008E7,2.50752E7,3.4206976E7,0E0,0E0,0E0,0E0,0E0,0E0,0E0,0E0,0E0,0E0,0E0,0E0,0E0,0E0,0E0,0E0,0E0,0E0,0E0,0E0,0E0,0E0,0E0,0E0,0E0,0E0,0E0,0E0,0E0,0E0,0E0,0E0,0E0,0E0,0E0,0E0,0E0,0E0,0E0,0E0,0E0,0E0,0E0,0E0,0E0,0E0,0E0,0E0,0E0,0E0,0E0,0E0,0E0,0E0,0E0,0E0,0E0,0E0,0E0,0E0,0E0,0E0,0E0,0E0],"parents":[2147483647,0,0,1,1,2,2,3,3,4,4,5,5,6,6,7,7,8,8,9,9,10,10,11,11,12,12,13,13,14,14,15,15,16,16,17,17,18,18,19,19,20,20,21,21,22,22,23,23,24,24,25,25,26,26,27,27,28,28,29,29,30,30,31,31,32,32,33,33,34,34,35,35,36,36,37,37,38,38,39,39,40,40,41,41,42,42,43,43,44,44,45,45,46,46,47,47,48,48,49,49,50,50,51,51,52,52,53,53,54,54,55,55,56,56,57,57,58,58,59,59,60,60,61,61,62,62],"right_children":[2,4,6,8,10,12,14,16,18,20,22,24,26,28,30,32,34,36,38,40,42,44,46,48,50,52,54,56,58,60,62,64,66,68,70,72,74,76,78,80,82,84,86,88,90,92,94,96,98,100,102,104,106,108,110,112,114,116,118,120,122,124,126,-1,-1,-1,-1,-1,-1,-1,-1,-1,-1,-1,-1,-1,-1,-1,-1,-1,-1,-1,-1,-1,-1,-1,-1,-1,-1,-1,-1,-1,-1,-1,-1,-1,-1,-1,-1,-1,-1,-1,-1,-1,-1,-1,-1,-1,-1,-1,-1,-1,-1,-1,-1,-1,-1,-1,-1,-1,-1,-1,-1,-1,-1,-1,-1],"split_conditions":[8.819723E1,3.8E1,1.328117E2,5.0204582E1,5.8796257E1,-7.4545456E1,1.8379349E2,2.1E1,-6.2444443E1,4.1875507E1,-5.4E1,-9.3888885E1,7.08E1,-9.62E1,2.2267229E2,3.025E1,3.315117E1,-8.470588E1,5.6857143E1,2.75E1,5.8E1,-6.546667E1,4.952941E1,-1.2428571E2,-8.18E1,-5.6444443E1,9.0333336E1,-1.18E2,8.6666664E1,1.2130556E2,4.8E1,-2.425E1,5.6857143E1,-2.5545454E1,-3.74E1,-1.1275E2,-7.35E1,2.4E1,7.7E1,-2.425E1,3.1857143E1,4.1E1,3.6E1,-7.563636E1,-5.8333332E1,-4.204348E1,6.35E1,1.8E1,-1.04833336E2,1.02E2,8.8E1,-6.625E1,5.45E1,7.82E1,1.062381E2,-1.45E2,7E1,-7.4545456E1,1.10333336E2,-1.18E2,3.7E1,2.8537958E2,2.8537958E2,-7.3514783E-1,1.7171735E0,-7.3938674E-1,-2.5856576E0,2.3928876E0,4.7350683E0,3.5258827E-1,2.4208345E0,-5.65293E0,-4.061088E0,-2.9886816E0,-2.1902072E0,-1.0345387E0,5.394719E-1,-2.0210655E0,-3.9762642E0,5.0015388E0,7.887227E0,5.24263E0,3.7761753E0,3.6732624E0,1.5530921E0,5.5769935E0,3.22556E0,-2.9020374E0,-1.428615E0,-4.3138838E-1,3.7590533E-1,1.4295748E0,3.0605242E0,4.739059E-1,-1.5978092E0,-6.0033813E0,-7.6444154E0,-5.5820346E0,-4.808575E0,-3.795838E0,-5.5414844E0,-2.868366E0,-3.9126356E0,-2.189567E0,-1.2577697E0,6.3307863E-1,-1.1780417E0,-2.4778984E0,-3.4914339E0,-4.687904E0,-6.245237E0,-8.015971E0,-6.5978503E0,-5.081182E0,-6.6437945E0,-3.6989484E0,-2.037525E0,-4.6791987E0,-6.723925E0,-6.9021883E0,-4.4477663E0,-6.6546793E0,-8.07754E0,-6.118291E0,-7.4767976E0,-7.5980425E0,-1.0155597E1],"split_indices":[3,0,3,3,3,2,3,0,2,3,2,2,2,2,3,2,3,2,2,2,0,2,2,2,2,2,2,2,2,2,0,2,2,2,2,2,2,0,2,2,2,2,2,2,2,2,2,0,2,0,0,2,2,2,2,2,0,2,2,2,0,3,3,0,0,0,0,0,0,0,0,0,0,0,0,0,0,0,0,0,0,0,0,0,0,0,0,0,0,0,0,0,0,0,0,0,0,0,0,0,0,0,0,0,0,0,0,0,0,0,0,0,0,0,0,0,0,0,0,0,0,0,0,0,0,0,0],"split_type":[0,0,0,0,0,0,0,0,0,0,0,0,0,0,0,0,0,0,0,0,0,0,0,0,0,0,0,0,0,0,0,0,0,0,0,0,0,0,0,0,0,0,0,0,0,0,0,0,0,0,0,0,0,0,0,0,0,0,0,0,0,0,0,0,0,0,0,0,0,0,0,0,0,0,0,0,0,0,0,0,0,0,0,0,0,0,0,0,0,0,0,0,0,0,0,0,0,0,0,0,0,0,0,0,0,0,0,0,0,0,0,0,0,0,0,0,0,0,0,0,0,0,0,0,0,0,0],"sum_hessian":[1.615004E7,1.0219151E7,5.930889E6,5.754774E6,4.464377E6,3.785468E6,2.145421E6,3.434513E6,2.320261E6,1.561609E6,2.902768E6,5.93669E5,3.191799E6,1.514938E6,6.30483E5,2.137008E6,1.297505E6,2.76703E5,2.043558E6,3.98153E5,1.163456E6,3.78232E5,2.524536E6,1.9628E5,3.97389E5,2.489322E6,7.02477E5,2.64051E5,1.250887E6,3.77692E5,2.52791E5,1.735899E6,4.01109E5,4.85632E5,8.11873E5,7.6086E4,2.00617E5,1.689491E6,3.54067E5,3.28938E5,6.9215E4,6.05952E5,5.57504E5,1.23704E5,2.54528E5,1.950026E6,5.7451E5,3.4126E4,1.62154E5,2.03107E5,1.94282E5,6.83025E5,1.806297E6,4.75833E5,2.26644E5,1.05945E5,1.58106E5,8.90575E5,3.60312E5,3.18083E5,5.9609E4,1.70364E5,8.2427E4,4.44959E5,1.29094E6,3.19532E5,8.1577E4,6.8984E4,4.16648E5,1.24114E5,6.87759E5,1.5864E4,6.0222E4,7.1138E4,1.29479E5,7.27855E5,9.61636E5,2.4812E5,1.05947E5,8.5874E4,2.43064E5,3.0757E4,3.8458E4,5.1319E5,9.2762E4,4.6165E5,9.5854E4,3.7691E4,8.6013E4,1.33088E5,1.2144E5,4.76541E5,1.473485E6,4.11887E5,1.62623E5,1.4851E4,1.9275E4,6.8267E4,9.3887E4,1.99018E5,4.089E3,1.78063E5,1.6219E4,2.90554E5,3.92471E5,1.161773E6,6.44524E5,2.31053E5,2.4478E5,1.44236E5,8.2408E4,3.0969E4,7.4976E4,1.37133E5,2.0973E4,2.48975E5,6.416E5,2.21585E5,1.38727E5,6.9156E4,2.48927E5,3.7502E4,2.2107E4,1.23462E5,4.6902E4,6.6116E4,1.6311E4],"tree_param":{"num_deleted":"0","num_feature":"4","num_nodes":"127","size_leaf_vector":"1"}},{"base_weights":[2.9510407E-2,2.6686186E1,-5.5524826E1,3.4391357E1,-2.9452295E1,-3.9834114E1,-9.406801E1,-1.4765689E1,4.7224144E1,-1.4411996E1,-5.9795605E1,-3.069749E1,-8.818831E1,-8.4954994E1,-1.287459E2,-4.9183224E1,-4.3974444E-1,5.3309704E1,1.9159073E1,-6.161886E0,-2.3520298E1,-5.01338E1,-8.852225E1,-8.065066E1,-1.6125532E1,-7.4762115E1,-1.1281034E2,-7.710322E1,-1.2668017E2,-1.2211521E2,-1.5520087E2,-7.684294E1,-3.757137E1,-1.2369789E1,7.7996206E0,5.986006E1,3.1582167E1,3.0027456E1,1.284867E1,-1.7625008E1,-3.591143E0,-1.8460316E1,-3.043851E1,-4.472103E1,-6.1550556E1,-8.08618E1,-1.05335144E2,-1.1126938E2,-6.75314E1,-8.211763E0,-4.3126564E1,-6.711582E1,-8.464221E1,-1.01198074E2,-1.2650564E2,-1.21716644E2,-6.471217E1,-1.1515876E2,-1.43608E2,-1.4950809E2,-1.17181946E2,-1.3897513E2,-1.6359137E2,-3.2223568E0,-4.8065157E0,-2.3305407E0,-1.513925E0,-1.4888616E0,-5.315005E-1,-6.8722695E-1,5.12603E-1,2.090773E0,3.18976E0,4.5429006E-1,1.8067675E0,1.7729865E-1,1.6387135E0,-3.0344138E-1,7.7226555E-1,-1.5239557E0,-7.7225125E-1,1.4633612E-3,-4.1325065E-1,-1.2849494E0,-8.155923E-1,-1.9916636E0,-1.467296E0,-2.0765934E0,-2.5298932E0,-2.7793655E0,-3.2221081E0,-3.5114834E0,-4.2002854E0,-6.268509E0,-4.972332E0,-6.8580713E0,-5.16289E0,-3.9577534E0,-2.9543722E0,-1.6677548E0,6.711916E-2,-1.784338E0,-2.6272092E0,-3.1610007E0,-3.5567243E0,-4.0644264E0,-4.4973702E0,-4.949964E0,-5.433863E0,-5.9838753E0,-6.976457E0,-7.188825E0,-5.442189E0,-2.9789035E0,-4.4185476E0,-5.8018928E0,-4.2329097E0,-6.903924E0,-8.054853E0,-6.834353E0,-7.9700465E0,-5.568166E0,-7.2102113E0,-6.36272E0,-7.306928E0,-7.0583987E0,-9.408069E0],"categories":[],"categories_nodes":[],"categories_segments":[],"categories_sizes":[],"default_left":[0,0,0,0,0,0,0,0,0,0,0,0,0,0,0,0,0,0,0,0,0,0,0,0,0,0,0,0,0,0,0,0,0,0,0,0,0,0,0,0,0,0,0,0,0,0,0,0,0,0,0,0,0,0,0,0,0,0,0,0,0,0,0,0,0,0,0,0,0,0,0,0,0,0,0,0,0,0,0,0,0,0,0,0,0,0,0,0,0,0,0,0,0,0,0,0,0,0,0,0,0,0,0,0,0,0,0,0,0,0,0,0,0,0,0,0,0,0,0,0,0,0,0,0,0,0,0],"id":8,"left_children":[1,3,5,7,9,11,13,15,17,19,21,23,25,27,29,31,33,35,37,39,41,43,45,47,49,51,53,55,57,59,61,63,65,67,69,71,73,75,77,79,81,83,85,87,89,91,93,95,97,99,101,103,105,107,109,111,113,115,117,119,121,123,125,-1,-1,-1,-1,-1,-1,-1,-1,-1,-1,-1,-1,-1,-1,-1,-1,-1,-1,-1,-1,-1,-1,-1,-1,-1,-1,-1,-1,-1,-1,-1,-1,-1,-1,-1,-1,-1,-1,-1,-1,-1,-1,-1,-1,-1,-1,-1,-1,-1,-1,-1,-1,-1,-1,-1,-1,-1,-1,-1,-1,-1,-1,-1,-1],"loss_changes":[2.391517E10,4.720419E9,3.166762E9,6.0532326E9,6.010646E8,1.644075E9,4.787415E8,9.794542E8,1.2996055E9,6.617029E7,1.2113971E8,2.2783434E9,1.9550054E8,3.9302656E8,5.528269E7,1.875127E8,1.378735E8,8.8999526E8,9.299693E7,1.3616176E7,1.4650144E7,2.0181312E7,1.4139904E7,2.839301E8,5.177691E8,2.8907264E7,3.3175808E7,5.581537E8,3.7039616E7,3.404851E7,8.578432E6,4.126579E7,2.7106688E7,1.7352688E7,4.3835204E7,3.4117837E8,1.4837414E8,3.6231136E7,4.214035E7,2.37129E6,6.3864135E6,3.758928E6,1.813584E6,4.15072E6,1.807776E6,2.516896E6,4.043808E6,4.3966464E7,4.8562944E7,4.501514E8,3.847936E7,3.373312E6,2.963328E6,1.846528E6,8.498432E6,6.2308864E7,9.597901E7,3.021696E6,7.418496E6,4.857216E6,3.3572096E7,1.790016E6,2.2913536E7,0E0,0E0,0E0,0E0,0E0,0E0,0E0,0E0,0E0,0E0,0E0,0E0,0E0,0E0,0E0,0E0,0E0,0E0,0E0,0E0,0E0,0E0,0E0,0E0,0E0,0E0,0E0,0E0,0E0,0E0,0E0,0E0,0E0,0E0,0E0,0E0,0E0,0E0,0E0,0E0,0E0,0E0,0E0,0E0,0E0,0E0,0E0,0E0,0E0,0E0,0E0,0E0,0E0,0E0,0E0,0E0,0E0,0E0,0E0,0E0,0E0,0E0,0E0,0E0],"parents":[2147483647,0,0,1,1,2,2,3,3,4,4,5,5,6,6,7,7,8,8,9,9,10,10,11,11,12,12,13,13,14,14,15,15,16,16,17,17,18,18,19,19,20,20,21,21,22,22,23,23,24,24,25,25,26,26,27,27,28,28,29,29,30,30,31,31,32,32,33,33,34,34,35,35,36,36,37,37,38,38,39,39,40,40,41,41,42,42,43,43,44,44,45,45,46,46,47,47,48,48,49,49,50,50,51,51,52,52,53,53,54,54,55,55,56,56,57,57,58,58,59,59,60,60,61,61,62,62],"right_children":[2,4,6,8,10,12,14,16,18,20,22,24,26,28,30,32,34,36,38,40,42,44,46,48,50,52,54,56,58,60,62,64,66,68,70,72,74,76,78,80,82,84,86,88,90,92,94,96,98,100,102,104,106,108,110,112,114,116,118,120,122,124,126,-1,-1,-1,-1,-1,-1,-1,-1,-1,-1,-1,-1,-1,-1,-1,-1,-1,-1,-1,-1,-1,-1,-1,-1,-1,-1,-1,-1,-1,-1,-1,-1,-1,-1,-1,-1,-1,-1,-1,-1,-1,-1,-1,-1,-1,-1,-1,-1,-1,-1,-1,-1,-1,-1,-1,-1,-1,-1,-1,-1,-1,-1,-1,-1],"split_conditions":[9.395891E1,5.2333332E1,1.4739644E2,-4.5636364E1,6.875E1,8E1,2.1312735E2,-6.45E1,3.825E1,5.91E1,8.8916664E1,-7.5888885E1,9.9666664E1,1.09333336E2,2.8537958E2,-8.053125E1,-5.48E1,3.2375E1,4.3E1,5.727565E1,6.4E1,7.88E1,1.09333336E2,-9.814286E1,6.4E1,8.8916664E1,1.1364706E2,-1.04E2,1.335E2,-1.42E2,-9.62E1,9.2333336E1,-7.1E1,4.937032E1,4.596194E1,-3.04E1,4.094653E1,3.8973442E1,4.68249E1,3.2526913E1,5.5909092E1,6.33035E1,5.2620655E1,7.4375E1,8.1333336E1,6.1805225E1,-1.45E2,-1.2236842E2,-8.62E1,-6.1666668E1,7.2375E1,8.4111115E1,9.48E1,1.09333336E2,1.335E2,-1.3035294E2,9.075E1,-9.62E1,1.6933333E2,1.63E2,1.46E2,1.6933333E2,-7.007692E1,-3.2223568E0,-4.8065157E0,-2.3305407E0,-1.513925E0,-1.4888616E0,-5.315005E-1,-6.8722695E-1,5.12603E-1,2.090773E0,3.18976E0,4.5429006E-1,1.8067675E0,1.7729865E-1,1.6387135E0,-3.0344138E-1,7.7226555E-1,-1.5239557E0,-7.7225125E-1,1.4633612E-3,-4.1325065E-1,-1.2849494E0,-8.155923E-1,-1.9916636E0,-1.467296E0,-2.0765934E0,-2.5298932E0,-2.7793655E0,-3.2221081E0,-3.5114834E0,-4.2002854E0,-6.268509E0,-4.972332E0,-6.8580713E0,-5.16289E0,-3.9577534E0,-2.9543722E0,-1.6677548E0,6.711916E-2,-1.784338E0,-2.6272092E0,-3.1610007E0,-3.5567243E0,-4.0644264E0,-4.4973702E0,-4.949964E0,-5.433863E0,-5.9838753E0,-6.976457E0,-7.188825E0,-5.442189E0,-2.9789035E0,-4.4185476E0,-5.8018928E0,-4.2329097E0,-6.903924E0,-8.054853E0,-6.834353E0,-7.9700465E0,-5.568166E0,-7.2102113E0,-6.36272E0,-7.306928E0,-7.0583987E0,-9.408069E0],"split_indices":[3,1,3,1,1,1,3,1,1,1,1,1,1,1,3,1,1,2,1,3,1,1,1,1,1,1,1,1,1,1,2,2,1,3,3,2,3,3,3,3,1,3,3,1,1,3,2,1,1,1,1,1,1,1,1,1,1,2,1,2,1,1,1,0,0,0,0,0,0,0,0,0,0,0,0,0,0,0,0,0,0,0,0,0,0,0,0,0,0,0,0,0,0,0,0,0,0,0,0,0,0,0,0,0,0,0,0,0,0,0,0,0,0,0,0,0,0,0,0,0,0,0,0,0,0,0,0],"split_type":[0,0,0,0,0,0,0,0,0,0,0,0,0,0,0,0,0,0,0,0,0,0,0,0,0,0,0,0,0,0,0,0,0,0,0,0,0,0,0,0,0,0,0,0,0,0,0,0,0,0,0,0,0,0,0,0,0,0,0,0,0,0,0,0,0,0,0,0,0,0,0,0,0,0,0,0,0,0,0,0,0,0,0,0,0,0,0,0,0,0,0,0,0,0,0,0,0,0,0,0,0,0,0,0,0,0,0,0,0,0,0,0,0,0,0,0,0,0,0,0,0,0,0,0,0,0,0],"sum_hessian":[1.6149143E7,1.0912832E7,5.236311E6,9.595783E6,1.317049E6,3.721366E6,1.514945E6,1.986465E6,7.609318E6,8.80575E5,4.36474E5,3.129956E6,5.9141E5,1.199683E6,3.15262E5,5.83831E5,1.402634E6,6.253355E6,1.355963E6,4.62056E5,4.18519E5,3.26622E5,1.09852E5,7.06849E5,2.423107E6,3.8272E5,2.0869E5,1.009685E6,1.89998E5,2.52085E5,6.3177E4,1.72626E5,4.11205E5,5.72987E5,8.29647E5,4.804812E6,1.448543E6,4.98094E5,8.57869E5,8.4639E4,3.77417E5,2.41725E5,1.76794E5,2.21576E5,1.05046E5,7.5471E4,3.4381E4,2.12018E5,4.94831E5,1.873888E6,5.49219E5,2.15754E5,1.66966E5,1.12938E5,9.5752E4,2.19473E5,7.90212E5,1.13057E5,7.6941E4,3.8466E4,2.13619E5,2.154E4,4.1637E4,1.0509E5,6.7536E4,1.83613E5,2.27592E5,5.2062E4,5.20925E5,8.4789E4,7.44858E5,8.6023E5,3.944582E6,2.4383E5,1.204713E6,4.681E4,4.51284E5,1.0354E5,7.54329E5,1.2271E4,7.2368E4,2.12677E5,1.6474E5,5.5322E4,1.86403E5,1.8415E4,1.58379E5,1.43637E5,7.7939E4,3.431E4,7.0736E4,1.7229E4,5.8242E4,7.805E3,2.6576E4,5.0097E4,1.61921E5,2.08209E5,2.86622E5,5.15985E5,1.357903E6,3.06831E5,2.42388E5,1.0956E5,1.06194E5,1.02308E5,6.4658E4,8.729E4,2.5648E4,6.2824E4,3.2928E4,8.0873E4,1.386E5,6.49311E5,1.40901E5,1.09887E5,3.17E3,5.8465E4,1.8476E4,1.676E4,2.1706E4,1.75775E5,3.7844E4,8.178E3,1.3362E4,2.1773E4,1.9864E4],"tree_param":{"num_deleted":"0","num_feature":"4","num_nodes":"127","size_leaf_vector":"1"}},{"base_weights":[3.7277684E-2,2.7639294E1,-4.831496E1,1.0225379E1,5.2397766E1,-2.9831993E1,-8.040327E1,2.917647E1,-1.3711876E1,8.7224976E1,2.895984E1,-7.247875E1,-2.1310188E1,-6.871107E1,-1.0851376E2,1.0259623E1,5.553693E1,-2.935209E1,1.8015171E0,1.2049247E2,7.3865074E1,3.5879932E1,-8.271167E0,-9.611102E1,-5.9372044E1,-7.120713E0,-6.4901985E1,-1.0814385E2,-6.040016E1,-9.872697E1,-1.3130664E2,1.8033075E1,-2.1670856E1,8.222056E1,4.1498608E1,-6.2564682E1,-2.4872759E1,1.6916805E1,-1.4403728E1,1.3075865E2,8.363882E1,8.141591E1,3.7851852E1,-3.1778266E0,4.721366E1,1.0241834E0,-3.631891E1,-1.16074455E2,-8.8011215E1,-6.8189415E1,-5.2503757E1,-2.8847109E1,1.499792E0,-5.116365E1,-9.251642E1,-1.235638E2,-9.232014E1,-4.4825466E1,-9.891457E1,-9.235274E1,-1.3039992E2,-1.141214E2,-1.4843484E2,-7.134861E-1,1.4961588E0,-7.4421555E-1,-2.2129657E0,4.5340514E0,2.0949004E0,1.1965832E0,2.7558234E0,-4.4531283E0,-2.7561555E0,-9.090311E-1,-2.7351327E0,1.0957984E0,-6.9361824E-1,-2.2499528E0,-4.0477535E-1,4.431354E0,7.343818E0,3.6038373E0,5.011486E0,2.1876047E0,4.7010083E0,2.3097057E0,4.963633E-1,-1.3721861E0,4.3770996E-1,2.7365882E0,1.2849191E0,3.866387E-1,-3.711463E-1,-1.4809903E0,-3.2613618E0,-5.1091166E0,-6.273382E0,-3.934132E0,-4.585214E0,-3.36856E0,-5.2692986E0,-2.5468931E0,-3.445081E0,-2.2486007E0,-1.222377E0,6.653953E-1,-9.038109E-1,-2.1665866E0,-3.0961425E0,-4.147327E0,-5.6259837E0,-5.3758464E0,-6.599151E0,-4.435309E0,-6.2209706E0,-3.420327E0,-1.8465462E0,-4.2403145E0,-6.0740213E0,-6.230074E0,-4.1339974E0,-6.0016017E0,-7.418779E0,-5.419122E0,-6.6970825E0,-6.903932E0,-8.733539E0],"categories":[],"categories_nodes":[],"categories_segments":[],"categories_sizes":[],"default_left":[0,0,0,0,0,0,0,0,0,0,0,0,0,0,0,0,0,0,0,0,0,0,0,0,0,0,0,0,0,0,0,0,0,0,0,0,0,0,0,0,0,0,0,0,0,0,0,0,0,0,0,0,0,0,0,0,0,0,0,0,0,0,0,0,0,0,0,0,0,0,0,0,0,0,0,0,0,0,0,0,0,0,0,0,0,0,0,0,0,0,0,0,0,0,0,0,0,0,0,0,0,0,0,0,0,0,0,0,0,0,0,0,0,0,0,0,0,0,0,0,0,0,0,0,0,0,0],"id":9,"left_children":[1,3,5,7,9,11,13,15,17,19,21,23,25,27,29,31,33,35,37,39,41,43,45,47,49,51,53,55,57,59,61,63,65,67,69,71,73,75,77,79,81,83,85,87,89,91,93,95,97,99,101,103,105,107,109,111,113,115,117,119,121,123,125,-1,-1,-1,-1,-1,-1,-1,-1,-1,-1,-1,-1,-1,-1,-1,-1,-1,-1,-1,-1,-1,-1,-1,-1,-1,-1,-1,-1,-1,-1,-1,-1,-1,-1,-1,-1,-1,-1,-1,-1,-1,-1,-1,-1,-1,-1,-1,-1,-1,-1,-1,-1,-1,-1,-1,-1,-1,-1,-1,-1,-1,-1,-1,-1],"loss_changes":[2.155397E10,4.4325596E9,3.4807808E9,2.7380332E9,3.4652938E9,1.353377E9,7.0499635E8,1.6798354E9,6.47105E8,7.589806E8,6.53777E8,1.9209472E8,1.9197983E9,4.9645875E8,1.4054246E8,4.8680787E8,5.2721818E8,1.9757696E8,3.279685E8,1.8511258E8,3.3131827E8,9.472315E8,1.0369261E8,3.5766784E7,2.4156416E7,4.385539E8,2.891525E8,6.433203E7,7.5052595E8,8.898611E7,5.5696896E7,6.0580915E8,5.8863936E7,1.6552038E8,2.2062426E8,3.1116736E7,2.33611E8,1.0663088E8,1.24711976E8,2.5985894E8,2.044288E7,4.7814963E8,4.9196E7,1.3934891E8,2.6827443E8,1.6928318E7,1.9170584E7,8.319936E6,5.415296E6,5.309376E6,5.755008E6,4.7186496E7,3.8750832E8,4.288627E7,4.8463616E7,1.8028928E7,1.5087232E7,1.6585318E8,1.1468877E8,1.1446195E8,1.3745792E7,1.0733056E7,2.5731328E7,0E0,0E0,0E0,0E0,0E0,0E0,0E0,0E0,0E0,0E0,0E0,0E0,0E0,0E0,0E0,0E0,0E0,0E0,0E0,0E0,0E0,0E0,0E0,0E0,0E0,0E0,0E0,0E0,0E0,0E0,0E0,0E0,0E0,0E0,0E0,0E0,0E0,0E0,0E0,0E0,0E0,0E0,0E0,0E0,0E0,0E0,0E0,0E0,0E0,0E0,0E0,0E0,0E0,0E0,0E0,0E0,0E0,0E0,0E0,0E0,0E0,0E0,0E0,0E0],"parents":[2147483647,0,0,1,1,2,2,3,3,4,4,5,5,6,6,7,7,8,8,9,9,10,10,11,11,12,12,13,13,14,14,15,15,16,16,17,17,18,18,19,19,20,20,21,21,22,22,23,23,24,24,25,25,26,26,27,27,28,28,29,29,30,30,31,31,32,32,33,33,34,34,35,35,36,36,37,37,38,38,39,39,40,40,41,41,42,42,43,43,44,44,45,45,46,46,47,47,48,48,49,49,50,50,51,51,52,52,53,53,54,54,55,55,56,56,57,57,58,58,59,59,60,60,61,61,62,62],"right_children":[2,4,6,8,10,12,14,16,18,20,22,24,26,28,30,32,34,36,38,40,42,44,46,48,50,52,54,56,58,60,62,64,66,68,70,72,74,76,78,80,82,84,86,88,90,92,94,96,98,100,102,104,106,108,110,112,114,116,118,120,122,124,126,-1,-1,-1,-1,-1,-1,-1,-1,-1,-1,-1,-1,-1,-1,-1,-1,-1,-1,-1,-1,-1,-1,-1,-1,-1,-1,-1,-1,-1,-1,-1,-1,-1,-1,-1,-1,-1,-1,-1,-1,-1,-1,-1,-1,-1,-1,-1,-1,-1,-1,-1,-1,-1,-1,-1,-1,-1,-1,-1,-1,-1,-1,-1,-1],"split_conditions":[8.869437E1,4E1,1.328117E2,4.8536926E1,6.1805225E1,-7.35E1,1.8379349E2,2E1,2.6E1,4.508141E1,5.3333332E1,-9.175E1,6.9E1,-9.62E1,2.3532822E2,2.8E1,3.13826E1,-6.546667E1,6.6685814E1,2.6833334E1,3.95E1,-5E1,6.7333336E1,-1.1275E2,-8.18E1,-5.581818E1,8.84375E1,-1.1275E2,8.6666664E1,1.2130556E2,3.4E1,-2.425E1,5.3333332E1,2.375E1,2.7E1,-9.62E1,5.6857143E1,4.9E1,-5.9666668E1,-2.5545454E1,5.3E1,-3.6375E1,5.1666668E1,-6.2444443E1,4.2E1,5.9363636E1,8.072727E1,2E1,2.6E1,1.02E2,8.8E1,3.6E1,5.28E1,7.82E1,1.062381E2,2.4E1,7.6E1,-7.675E1,1.10333336E2,-1.18E2,3.7E1,1.63E2,2.8537958E2,-7.134861E-1,1.4961588E0,-7.4421555E-1,-2.2129657E0,4.5340514E0,2.0949004E0,1.1965832E0,2.7558234E0,-4.4531283E0,-2.7561555E0,-9.090311E-1,-2.7351327E0,1.0957984E0,-6.9361824E-1,-2.2499528E0,-4.0477535E-1,4.431354E0,7.343818E0,3.6038373E0,5.011486E0,2.1876047E0,4.7010083E0,2.3097057E0,4.963633E-1,-1.3721861E0,4.3770996E-1,2.7365882E0,1.2849191E0,3.866387E-1,-3.711463E-1,-1.4809903E0,-3.2613618E0,-5.1091166E0,-6.273382E0,-3.934132E0,-4.585214E0,-3.36856E0,-5.2692986E0,-2.5468931E0,-3.445081E0,-2.2486007E0,-1.222377E0,6.653953E-1,-9.038109E-1,-2.1665866E0,-3.0961425E0,-4.147327E0,-5.6259837E0,-5.3758464E0,-6.599151E0,-4.435309E0,-6.2209706E0,-3.420327E0,-1.8465462E0,-4.2403145E0,-6.0740213E0,-6.230074E0,-4.1339974E0,-6.0016017E0,-7.418779E0,-5.419122E0,-6.6970825E0,-6.903932E0,-8.733539E0],"split_indices":[3,0,3,3,3,2,3,0,0,3,2,2,2,2,3,2,3,2,3,2,2,2,2,2,2,2,2,2,2,2,0,2,2,2,0,2,2,2,2,2,0,2,2,2,2,2,2,0,0,0,0,0,2,2,2,0,0,2,2,2,0,2,3,0,0,0,0,0,0,0,0,0,0,0,0,0,0,0,0,0,0,0,0,0,0,0,0,0,0,0,0,0,0,0,0,0,0,0,0,0,0,0,0,0,0,0,0,0,0,0,0,0,0,0,0,0,0,0,0,0,0,0,0,0,0,0,0],"split_type":[0,0,0,0,0,0,0,0,0,0,0,0,0,0,0,0,0,0,0,0,0,0,0,0,0,0,0,0,0,0,0,0,0,0,0,0,0,0,0,0,0,0,0,0,0,0,0,0,0,0,0,0,0,0,0,0,0,0,0,0,0,0,0,0,0,0,0,0,0,0,0,0,0,0,0,0,0,0,0,0,0,0,0,0,0,0,0,0,0,0,0,0,0,0,0,0,0,0,0,0,0,0,0,0,0,0,0,0,0,0,0,0,0,0,0,0,0,0,0,0,0,0,0,0,0,0,0],"sum_hessian":[1.6149899E7,1.0280975E7,5.868924E6,6.035733E6,4.245242E6,3.72393E6,2.144994E6,3.368721E6,2.667012E6,1.707704E6,2.537538E6,6.20196E5,3.103734E6,1.514896E6,6.30098E5,1.961271E6,1.40745E6,1.328077E6,1.338935E6,4.89297E5,1.218407E6,2.139813E6,3.97725E5,2.21254E5,3.98942E5,2.341544E6,7.6219E5,2.63701E5,1.251195E6,4.40823E5,1.89275E5,1.577283E6,3.83988E5,4.85197E5,9.22253E5,1.57828E5,1.170249E6,6.92765E5,6.4617E5,3.8269E5,1.06607E5,1.007223E6,2.11184E5,4.81273E5,1.65854E6,2.98725E5,9.9E4,6.3856E4,1.57398E5,1.74681E5,2.24261E5,6.65151E5,1.676393E6,5.08975E5,2.53215E5,1.33551E5,1.3015E5,8.90921E5,3.60274E5,3.66973E5,7.385E4,9.4484E4,9.4791E4,4.24368E5,1.152915E6,2.95276E5,8.8712E4,4.01048E5,8.4149E4,4.02733E5,5.1952E5,3.4603E4,1.23225E5,9.55819E5,2.1443E5,5.95995E5,9.677E4,1.10454E5,5.35716E5,1.05893E5,2.76797E5,6.2828E4,4.3779E4,2.52553E5,7.5467E5,1.62606E5,4.8578E4,1.58643E5,3.2263E5,1.229065E6,4.29475E5,1.66496E5,1.32229E5,8.0376E4,1.8624E4,2.5764E4,3.8092E4,4.4646E4,1.12752E5,1.70924E5,3.757E3,2.04716E5,1.9545E4,1.42578E5,5.22573E5,1.045659E6,6.30734E5,2.94561E5,2.14414E5,1.71278E5,8.1937E4,4.5962E4,8.7589E4,1.16983E5,1.3167E4,2.23454E5,6.67467E5,2.21682E5,1.38592E5,8.4671E4,2.82302E5,4.6841E4,2.7009E4,7.3274E4,2.121E4,6.7968E4,2.6823E4],"tree_param":{"num_deleted":"0","num_feature":"4","num_nodes":"127","size_leaf_vector":"1"}},{"base_weights":[-5.5361427E-2,2.4019415E1,-5.0247498E1,3.1364824E1,-2.5546001E1,-3.609249E1,-8.5016136E1,-1.2277872E1,4.3694534E1,-1.1781978E1,-5.3581013E1,-2.813212E1,-8.159108E1,-7.679276E1,-1.1631194E2,-4.3969917E1,9.805373E-1,4.9438553E1,1.9803665E1,-4.2282205E0,-2.0811605E1,-4.5036026E1,-8.108902E1,-7.3229904E1,-1.517842E1,-6.896785E1,-1.02459885E2,-6.9593834E1,-1.1498963E2,-1.0621663E2,-1.3137114E2,-3.3505993E1,-7.054206E1,-8.278675E0,9.754698E0,2.84526E1,5.503875E1,2.87346E1,1.2007394E1,-1.5854743E1,-1.6913452E0,-1.7244955E1,-2.7477892E1,-3.7797653E1,-5.36107E1,-7.327828E1,-9.393399E1,-1.0106707E2,-6.1306896E1,-7.407146E0,-4.0016335E1,-6.181894E1,-7.658107E1,-9.557446E1,-1.2334867E2,-5.8291145E1,-1.1036489E2,-1.07604355E2,-1.3766791E2,-1.342389E2,-1.017692E2,-1.2198015E2,-1.4074686E2,-2.1365106E0,-1.3339539E0,-4.5026374E0,-2.9475288E0,-1.2782748E0,-3.2566094E-1,-5.429001E-1,6.0657567E-1,1.1833699E-1,1.6263962E0,1.7322165E0,2.8735294E0,4.339048E-1,1.589144E0,-3.4295473E-1,7.2365487E-1,-1.1979146E0,-6.2517107E-1,1.4589253E-1,-2.6065245E-1,-1.2178164E0,-7.543156E-1,-1.8574152E0,-1.3180778E0,-2.3260782E0,-1.8200957E0,-2.4608285E0,-2.963155E0,-3.0869327E0,-3.7844734E0,-6.2935205E0,-4.5318713E0,-6.252967E0,-4.682944E0,-3.5183506E0,-2.6264505E0,-1.5661887E0,5.4741163E-2,-1.6203403E0,-2.4180984E0,-2.7733405E0,-3.1693854E0,-3.6262116E0,-3.9701328E0,-4.4869933E0,-5.1442466E0,-6.815506E0,-5.8386617E0,-2.6621587E0,-3.9397225E0,-7.0100517E0,-5.086192E0,-5.1054945E0,-5.755633E0,-6.5062866E0,-7.45526E0,-7.1520076E0,-6.2133226E0,-4.810038E0,-6.619274E0,-7.341311E0,-5.919426E0,-6.2515173E0,-7.444051E0],"categories":[],"categories_nodes":[],"categories_segments":[],"categories_sizes":[],"default_left":[0,0,0,0,0,0,0,0,0,0,0,0,0,0,0,0,0,0,0,0,0,0,0,0,0,0,0,0,0,0,0,0,0,0,0,0,0,0,0,0,0,0,0,0,0,0,0,0,0,0,0,0,0,0,0,0,0,0,0,0,0,0,0,0,0,0,0,0,0,0,0,0,0,0,0,0,0,0,0,0,0,0,0,0,0,0,0,0,0,0,0,0,0,0,0,0,0,0,0,0,0,0,0,0,0,0,0,0,0,0,0,0,0,0,0,0,0,0,0,0,0,0,0,0,0,0,0],"id":10,"left_children":[1,3,5,7,9,11,13,15,17,19,21,23,25,27,29,31,33,35,37,39,41,43,45,47,49,51,53,55,57,59,61,63,65,67,69,71,73,75,77,79,81,83,85,87,89,91,93,95,97,99,101,103,105,107,109,111,113,115,117,119,121,123,125,-1,-1,-1,-1,-1,-1,-1,-1,-1,-1,-1,-1,-1,-1,-1,-1,-1,-1,-1,-1,-1,-1,-1,-1,-1,-1,-1,-1,-1,-1,-1,-1,-1,-1,-1,-1,-1,-1,-1,-1,-1,-1,-1,-1,-1,-1,-1,-1,-1,-1,-1,-1,-1,-1,-1,-1,-1,-1,-1,-1,-1,-1,-1,-1],"loss_changes":[1.9514966E10,3.9737912E9,2.5765222E9,5.1151524E9,5.435971E8,1.3475236E9,3.8981018E8,8.798626E8,1.0171361E9,6.444644E7,1.0903501E8,1.8498317E9,1.459369E8,3.2983194E8,4.7902976E7,1.7172966E8,1.1994151E8,7.0224896E8,1.0002925E8,1.5174432E7,1.0232464E7,2.1965888E7,1.1023744E7,2.3451085E8,4.74824E8,1.8783616E7,3.0020352E7,4.651013E8,3.1844096E7,2.3503232E7,1.1119872E7,2.7904256E7,3.945952E7,2.192236E7,3.7138016E7,1.3380595E8,2.339246E8,4.0936896E7,3.568224E7,2.502272E6,6.855304E6,4.303688E6,1.618408E6,2.335296E6,4.02112E6,1.897824E6,4.365184E6,3.764864E7,3.9339264E7,3.8099603E8,3.722861E7,1.770624E6,1.90784E6,6.68928E6,4.395456E6,8.178509E7,5.646541E7,5.907968E6,4.0112E6,2.250528E6,2.775168E7,5.622592E6,8.072448E6,0E0,0E0,0E0,0E0,0E0,0E0,0E0,0E0,0E0,0E0,0E0,0E0,0E0,0E0,0E0,0E0,0E0,0E0,0E0,0E0,0E0,0E0,0E0,0E0,0E0,0E0,0E0,0E0,0E0,0E0,0E0,0E0,0E0,0E0,0E0,0E0,0E0,0E0,0E0,0E0,0E0,0E0,0E0,0E0,0E0,0E0,0E0,0E0,0E0,0E0,0E0,0E0,0E0,0E0,0E0,0E0,0E0,0E0,0E0,0E0,0E0,0E0,0E0,0E0],"parents":[2147483647,0,0,1,1,2,2,3,3,4,4,5,5,6,6,7,7,8,8,9,9,10,10,11,11,12,12,13,13,14,14,15,15,16,16,17,17,18,18,19,19,20,20,21,21,22,22,23,23,24,24,25,25,26,26,27,27,28,28,29,29,30,30,31,31,32,32,33,33,34,34,35,35,36,36,37,37,38,38,39,39,40,40,41,41,42,42,43,43,44,44,45,45,46,46,47,47,48,48,49,49,50,50,51,51,52,52,53,53,54,54,55,55,56,56,57,57,58,58,59,59,60,60,61,61,62,62],"right_children":[2,4,6,8,10,12,14,16,18,20,22,24,26,28,30,32,34,36,38,40,42,44,46,48,50,52,54,56,58,60,62,64,66,68,70,72,74,76,78,80,82,84,86,88,90,92,94,96,98,100,102,104,106,108,110,112,114,116,118,120,122,124,126,-1,-1,-1,-1,-1,-1,-1,-1,-1,-1,-1,-1,-1,-1,-1,-1,-1,-1,-1,-1,-1,-1,-1,-1,-1,-1,-1,-1,-1,-1,-1,-1,-1,-1,-1,-1,-1,-1,-1,-1,-1,-1,-1,-1,-1,-1,-1,-1,-1,-1,-1,-1,-1,-1,-1,-1,-1,-1,-1,-1,-1,-1,-1,-1],"split_conditions":[9.395891E1,5.12E1,1.4739644E2,-4.46E1,6.7916664E1,8.1333336E1,2.1312735E2,-6.375E1,3.6642857E1,5.8444443E1,8.8916664E1,-7.5888885E1,9.9666664E1,1.09333336E2,2.5338564E2,7.942857E1,-5.2545456E1,-3.3307693E1,4.3E1,5.6529087E1,6.4E1,7.542105E1,1.05666664E2,-9.814286E1,6.4E1,8.8916664E1,1.25E2,1.0275E2,1.46E2,-1.42E2,2.8537958E2,-7.1E1,-9.35E1,4.8948223E1,4.508141E1,3.948617E1,-3.2666668E1,4.1875507E1,4.596194E1,4.094653E1,5.41E1,6.33035E1,5.2620655E1,5.727565E1,8.1333336E1,5.613752E1,-1.6854546E2,-1.2236842E2,-8.4666664E1,-6.2333332E1,7.2375E1,8.2666664E1,9.2666664E1,1.09333336E2,-1.45E2,8.8916664E1,-1.42E2,1.25E2,1.6933333E2,-1.64E2,1.46E2,-1.64E2,-9.62E1,-2.1365106E0,-1.3339539E0,-4.5026374E0,-2.9475288E0,-1.2782748E0,-3.2566094E-1,-5.429001E-1,6.0657567E-1,1.1833699E-1,1.6263962E0,1.7322165E0,2.8735294E0,4.339048E-1,1.589144E0,-3.4295473E-1,7.2365487E-1,-1.1979146E0,-6.2517107E-1,1.4589253E-1,-2.6065245E-1,-1.2178164E0,-7.543156E-1,-1.8574152E0,-1.3180778E0,-2.3260782E0,-1.8200957E0,-2.4608285E0,-2.963155E0,-3.0869327E0,-3.7844734E0,-6.2935205E0,-4.5318713E0,-6.252967E0,-4.682944E0,-3.5183506E0,-2.6264505E0,-1.5661887E0,5.4741163E-2,-1.6203403E0,-2.4180984E0,-2.7733405E0,-3.1693854E0,-3.6262116E0,-3.9701328E0,-4.4869933E0,-5.1442466E0,-6.815506E0,-5.8386617E0,-2.6621587E0,-3.9397225E0,-7.0100517E0,-5.086192E0,-5.1054945E0,-5.755633E0,-6.5062866E0,-7.45526E0,-7.1520076E0,-6.2133226E0,-4.810038E0,-6.619274E0,-7.341311E0,-5.919426E0,-6.2515173E0,-7.444051E0],"split_indices":[3,1,3,1,1,1,3,1,1,1,1,1,1,1,3,2,1,1,1,3,1,1,1,1,1,1,1,2,1,1,3,1,1,3,3,3,2,3,3,3,1,3,3,3,1,3,2,1,1,1,1,1,1,1,2,1,1,1,1,1,1,1,2,0,0,0,0,0,0,0,0,0,0,0,0,0,0,0,0,0,0,0,0,0,0,0,0,0,0,0,0,0,0,0,0,0,0,0,0,0,0,0,0,0,0,0,0,0,0,0,0,0,0,0,0,0,0,0,0,0,0,0,0,0,0,0,0],"split_type":[0,0,0,0,0,0,0,0,0,0,0,0,0,0,0,0,0,0,0,0,0,0,0,0,0,0,0,0,0,0,0,0,0,0,0,0,0,0,0,0,0,0,0,0,0,0,0,0,0,0,0,0,0,0,0,0,0,0,0,0,0,0,0,0,0,0,0,0,0,0,0,0,0,0,0,0,0,0,0,0,0,0,0,0,0,0,0,0,0,0,0,0,0,0,0,0,0,0,0,0,0,0,0,0,0,0,0,0,0,0,0,0,0,0,0,0,0,0,0,0,0,0,0,0,0,0,0],"sum_hessian":[1.6149899E7,1.0914658E7,5.235241E6,9.505917E6,1.408741E6,3.720538E6,1.514703E6,2.093982E6,7.411935E6,9.44857E5,4.63884E5,3.166528E6,5.5401E5,1.199518E6,3.15185E5,6.17632E5,1.47635E6,5.975307E6,1.436628E6,5.14474E5,4.30383E5,3.5394E5,1.09944E5,7.06583E5,2.459945E6,3.45205E5,2.08805E5,1.009299E6,1.90219E5,1.88696E5,1.26489E5,4.43132E5,1.745E5,7.1832E5,7.5803E5,1.25866E6,4.716647E6,6.69587E5,7.67041E5,9.2149E4,4.22325E5,2.80377E5,1.50006E5,1.91928E5,1.62012E5,6.8374E4,4.157E4,2.11883E5,4.947E5,1.873703E6,5.86242E5,1.78036E5,1.67169E5,1.57045E5,5.176E4,7.90231E5,2.19068E5,1.43495E5,4.6724E4,2.5842E4,1.62854E5,6.32E4,6.3289E4,1.88472E5,2.5466E5,6.5032E4,1.09468E5,6.6561E4,6.51759E5,7.837E4,6.7966E5,1.70068E5,1.088592E6,5.02499E5,4.214148E6,8.8341E4,5.81246E5,8.8659E4,6.78382E5,2.6958E4,6.5191E4,1.8292E5,2.39405E5,6.5287E4,2.1509E5,1.5521E4,1.34485E5,2.6467E4,1.65461E5,9.1157E4,7.0855E4,1.1822E4,5.6552E4,3.886E3,3.7684E4,4.9985E4,1.61898E5,2.43433E5,2.51267E5,4.91389E5,1.382314E6,3.06647E5,2.79595E5,3.5268E4,1.42768E5,6.8585E4,9.8584E4,8.7346E4,6.9699E4,1.7414E4,3.4346E4,6.34114E5,1.56117E5,4.9194E4,1.69874E5,8.2868E4,6.0627E4,2.8164E4,1.856E4,1.372E4,1.2122E4,1.37796E5,2.5058E4,7.977E3,5.5223E4,2.159E4,4.1699E4],"tree_param":{"num_deleted":"0","num_feature":"4","num_nodes":"127","size_leaf_vector":"1"}},{"base_weights":[2.2496717E-2,2.1858622E1,-4.9796463E1,2.930628E1,-2.4009993E1,-3.6925922E1,-8.2602295E1,-1.4921622E1,4.0908108E1,-1.0782781E1,-5.1037945E1,-2.9311802E1,-7.9653946E1,-7.54895E1,-1.14576775E2,-4.7983215E1,-3.454806E0,1.8766249E1,4.578274E1,-3.1071334E0,-1.912902E1,-4.274189E1,-7.760439E1,-7.188885E1,-1.6772207E1,-6.835914E1,-1.00192444E2,-6.8549805E1,-1.0890058E2,-1.083222E2,-1.3332878E2,-7.329417E1,-3.8254597E1,-1.5540467E1,3.8349338E0,1.1047129E1,2.7472517E1,2.4787367E1,5.2029995E1,-1.5195666E1,-1.042093E0,-1.5356861E1,-2.5036343E1,-3.6747833E1,-5.1464966E1,-7.3567055E1,-1.0080078E2,-9.871704E1,-6.137472E1,-9.564747E0,-4.036446E1,-6.1605095E1,-7.5578064E1,-9.326649E1,-1.1676003E2,-1.0794474E2,-5.783469E1,-1.01222694E2,-1.3037889E2,-1.0505101E2,-1.3874635E2,-1.1841276E2,-1.4062282E2,-3.2639744E0,-4.689779E0,-2.349593E0,-1.5984899E0,-1.0957819E0,-5.974223E-1,-7.376207E-1,2.9199764E-1,-2.082521E-1,6.872321E-1,4.5665723E-1,1.5178747E0,1.3464044E-1,1.4413941E0,2.7329705E0,1.8095931E0,-1.3486471E0,-6.3626045E-1,1.2568104E-1,-2.4104777E-1,-1.1482242E0,-6.9450253E-1,-1.7390617E0,-1.2074407E0,-1.6709946E0,-1.9940544E0,-2.3367326E0,-2.811004E0,-3.4107614E0,-4.022537E0,-4.7494416E0,-6.0679584E0,-5.8719397E0,-4.564111E0,-3.5085526E0,-2.6337736E0,-1.5813053E0,-7.6384656E-2,-1.5864962E0,-2.351988E0,-3.0945964E0,-1.6136976E0,-3.6158147E0,-4.0401983E0,-4.4512124E0,-5.0545564E0,-6.4055657E0,-5.5489078E0,-6.5843177E0,-4.953893E0,-3.659205E0,-2.669095E0,-4.8995705E0,-5.6393914E0,-6.1530566E0,-7.0475426E0,-5.087468E0,-6.675606E0,-7.0187755E0,-6.239863E0,-6.5440035E0,-4.927983E0,-8.14781E0,-6.008384E0],"categories":[],"categories_nodes":[],"categories_segments":[],"categories_sizes":[],"default_left":[0,0,0,0,0,0,0,0,0,0,0,0,0,0,0,0,0,0,0,0,0,0,0,0,0,0,0,0,0,0,0,0,0,0,0,0,0,0,0,0,0,0,0,0,0,0,0,0,0,0,0,0,0,0,0,0,0,0,0,0,0,0,0,0,0,0,0,0,0,0,0,0,0,0,0,0,0,0,0,0,0,0,0,0,0,0,0,0,0,0,0,0,0,0,0,0,0,0,0,0,0,0,0,0,0,0,0,0,0,0,0,0,0,0,0,0,0,0,0,0,0,0,0,0,0,0,0],"id":11,"left_children":[1,3,5,7,9,11,13,15,17,19,21,23,25,27,29,31,33,35,37,39,41,43,45,47,49,51,53,55,57,59,61,63,65,67,69,71,73,75,77,79,81,83,85,87,89,91,93,95,97,99,101,103,105,107,109,111,113,115,117,119,121,123,125,-1,-1,-1,-1,-1,-1,-1,-1,-1,-1,-1,-1,-1,-1,-1,-1,-1,-1,-1,-1,-1,-1,-1,-1,-1,-1,-1,-1,-1,-1,-1,-1,-1,-1,-1,-1,-1,-1,-1,-1,-1,-1,-1,-1,-1,-1,-1,-1,-1,-1,-1,-1,-1,-1,-1,-1,-1,-1,-1,-1,-1,-1,-1,-1],"loss_changes":[1.7569268E10,3.8358932E9,2.0780657E9,4.9568957E9,5.607538E8,1.150015E9,3.1538995E8,7.6105216E8,8.259871E8,6.746658E7,1.1358746E8,1.6018125E9,1.2401741E8,2.6302976E8,2.9583872E7,1.272928E8,1.3131597E8,9.27961E7,8.2264986E8,1.369503E7,1.1242176E7,2.0533696E7,1.14784E7,1.9253248E8,3.9409165E8,1.6813824E7,2.1755648E7,3.9651226E8,3.216128E7,1.8819328E7,6.850176E6,2.35776E7,2.0504064E7,1.2841568E7,3.4649096E7,3.0033384E7,3.4332576E7,1.2840006E8,2.012969E8,2.328528E6,6.2959095E6,3.435656E6,1.699664E6,2.426048E6,3.595328E6,3.843072E6,2.160576E6,2.6740096E7,3.7522176E7,3.1477344E8,3.1258624E7,1.497344E6,2.836288E6,4.431616E6,3.655808E6,4.2270976E7,5.046989E7,5.360256E6,3.957184E6,1.6043648E7,3.99904E5,5.119072E6,1.9341824E7,0E0,0E0,0E0,0E0,0E0,0E0,0E0,0E0,0E0,0E0,0E0,0E0,0E0,0E0,0E0,0E0,0E0,0E0,0E0,0E0,0E0,0E0,0E0,0E0,0E0,0E0,0E0,0E0,0E0,0E0,0E0,0E0,0E0,0E0,0E0,0E0,0E0,0E0,0E0,0E0,0E0,0E0,0E0,0E0,0E0,0E0,0E0,0E0,0E0,0E0,0E0,0E0,0E0,0E0,0E0,0E0,0E0,0E0,0E0,0E0,0E0,0E0,0E0,0E0],"parents":[2147483647,0,0,1,1,2,2,3,3,4,4,5,5,6,6,7,7,8,8,9,9,10,10,11,11,12,12,13,13,14,14,15,15,16,16,17,17,18,18,19,19,20,20,21,21,22,22,23,23,24,24,25,25,26,26,27,27,28,28,29,29,30,30,31,31,32,32,33,33,34,34,35,35,36,36,37,37,38,38,39,39,40,40,41,41,42,42,43,43,44,44,45,45,46,46,47,47,48,48,49,49,50,50,51,51,52,52,53,53,54,54,55,55,56,56,57,57,58,58,59,59,60,60,61,61,62,62],"right_children":[2,4,6,8,10,12,14,16,18,20,22,24,26,28,30,32,34,36,38,40,42,44,46,48,50,52,54,56,58,60,62,64,66,68,70,72,74,76,78,80,82,84,86,88,90,92,94,96,98,100,102,104,106,108,110,112,114,116,118,120,122,124,126,-1,-1,-1,-1,-1,-1,-1,-1,-1,-1,-1,-1,-1,-1,-1,-1,-1,-1,-1,-1,-1,-1,-1,-1,-1,-1,-1,-1,-1,-1,-1,-1,-1,-1,-1,-1,-1,-1,-1,-1,-1,-1,-1,-1,-1,-1,-1,-1,-1,-1,-1,-1,-1,-1,-1,-1,-1,-1,-1,-1,-1,-1,-1,-1],"split_conditions":[9.677873E1,5.0625E1,1.5100928E2,-4.6666668E1,6.7916664E1,8.2666664E1,2.2267229E2,-6.757143E1,-3.688889E1,5.78E1,8.8916664E1,-7.7E1,1.025E2,1.09333336E2,2.8537958E2,-8.4666664E1,-5.7166668E1,-4.3090908E1,-3.3833332E1,5.420609E1,6.325E1,7.65E1,1.25E2,-1.0085714E2,6.55E1,9.075E1,1.25E2,-1.07333336E2,1.46E2,1.63E2,-8.32E1,1.0275E2,-7.4833336E1,-6.305E1,4.68249E1,4.768298E1,4.1875507E1,4.2364082E1,3.1E1,3.2526913E1,5.41E1,5.8796257E1,5.1009804E1,7.142857E1,8.1333336E1,9.9666664E1,1.6933333E2,-1.2236842E2,-8.62E1,-6.305E1,7.2375E1,-6.2444443E1,9.7129036E1,1.1364706E2,-1.45E2,-1.42E2,-8.4666664E1,1.335E2,1.6933333E2,1.6933333E2,-1.64E2,-1.64E2,8.8916664E1,-3.2639744E0,-4.689779E0,-2.349593E0,-1.5984899E0,-1.0957819E0,-5.974223E-1,-7.376207E-1,2.9199764E-1,-2.082521E-1,6.872321E-1,4.5665723E-1,1.5178747E0,1.3464044E-1,1.4413941E0,2.7329705E0,1.8095931E0,-1.3486471E0,-6.3626045E-1,1.2568104E-1,-2.4104777E-1,-1.1482242E0,-6.9450253E-1,-1.7390617E0,-1.2074407E0,-1.6709946E0,-1.9940544E0,-2.3367326E0,-2.811004E0,-3.4107614E0,-4.022537E0,-4.7494416E0,-6.0679584E0,-5.8719397E0,-4.564111E0,-3.5085526E0,-2.6337736E0,-1.5813053E0,-7.6384656E-2,-1.5864962E0,-2.351988E0,-3.0945964E0,-1.6136976E0,-3.6158147E0,-4.0401983E0,-4.4512124E0,-5.0545564E0,-6.4055657E0,-5.5489078E0,-6.5843177E0,-4.953893E0,-3.659205E0,-2.669095E0,-4.8995705E0,-5.6393914E0,-6.1530566E0,-7.0475426E0,-5.087468E0,-6.675606E0,-7.0187755E0,-6.239863E0,-6.5440035E0,-4.927983E0,-8.14781E0,-6.008384E0],"split_indices":[3,1,3,1,1,1,3,1,2,1,1,1,1,1,3,1,1,2,1,3,1,1,1,1,1,1,1,1,1,2,1,2,1,1,3,3,3,3,1,3,1,3,3,1,1,1,1,1,1,1,1,2,1,1,2,1,1,1,1,1,1,1,1,0,0,0,0,0,0,0,0,0,0,0,0,0,0,0,0,0,0,0,0,0,0,0,0,0,0,0,0,0,0,0,0,0,0,0,0,0,0,0,0,0,0,0,0,0,0,0,0,0,0,0,0,0,0,0,0,0,0,0,0,0,0,0,0],"split_type":[0,0,0,0,0,0,0,0,0,0,0,0,0,0,0,0,0,0,0,0,0,0,0,0,0,0,0,0,0,0,0,0,0,0,0,0,0,0,0,0,0,0,0,0,0,0,0,0,0,0,0,0,0,0,0,0,0,0,0,0,0,0,0,0,0,0,0,0,0,0,0,0,0,0,0,0,0,0,0,0,0,0,0,0,0,0,0,0,0,0,0,0,0,0,0,0,0,0,0,0,0,0,0,0,0,0,0,0,0,0,0,0,0,0,0,0,0,0,0,0,0,0,0,0,0,0,0],"sum_hessian":[1.6150403E7,1.122874E7,4.921663E6,9.660217E6,1.568523E6,3.534854E6,1.386809E6,2.007464E6,7.652753E6,1.053132E6,5.15391E5,3.000218E6,5.34636E5,1.134451E6,2.52358E5,5.16955E5,1.490509E6,1.380801E6,6.271952E6,5.48606E5,5.04526E5,3.92748E5,1.22643E5,6.82579E5,2.317639E6,3.44944E5,1.89692E5,9.39346E5,1.95105E5,1.89244E5,6.3114E4,1.43529E5,3.73426E5,5.60784E5,9.29725E5,7.31894E5,6.48907E5,1.438279E6,4.833673E6,8.0042E4,4.68564E5,3.07911E5,1.96615E5,2.32791E5,1.59957E5,1.04465E5,1.8178E4,1.92185E5,4.90394E5,1.775288E6,5.42351E5,1.78215E5,1.66729E5,1.33775E5,5.5917E4,2.0086E5,7.38486E5,1.43731E5,5.1374E4,1.70876E5,1.8368E4,2.0733E4,4.2381E4,1.03192E5,4.0337E4,1.56228E5,2.17198E5,2.02096E5,3.58688E5,9.0524E4,8.39201E5,1.10236E5,6.21658E5,8.8205E4,5.60702E5,2.2236E5,1.215919E6,4.145452E6,6.88221E5,1.3877E4,6.6165E4,2.4141E5,2.27154E5,4.9769E4,2.58142E5,1.6409E4,1.80206E5,1.12894E5,1.19897E5,8.0193E4,7.9764E4,5.8778E4,4.5687E4,1.4176E4,4.002E3,5.4623E4,1.37562E5,2.43833E5,2.46561E5,4.74047E5,1.301241E6,2.36475E5,3.05876E5,1.76488E5,1.727E3,1.02665E5,6.4064E4,8.6753E4,4.7022E4,1.8863E4,3.7054E4,5.4614E4,1.46246E5,1.66055E5,5.72431E5,1.1235E5,3.1381E4,3.0367E4,2.1007E4,1.53118E5,1.7758E4,1.6439E4,1.929E3,1.2732E4,8.001E3,2.0257E4,2.2124E4],"tree_param":{"num_deleted":"0","num_feature":"4","num_nodes":"127","size_leaf_vector":"1"}},{"base_weights":[-2.200349E-3,2.4566816E1,-4.0265743E1,3.0922626E1,-1.857993E1,-2.3493969E1,-6.745618E1,-8.952945E0,4.1161434E1,-6.834012E0,-4.5916252E1,-1.6164448E1,-6.2932808E1,-5.6404945E1,-9.04603E1,-3.8787308E1,1.4050717E0,2.1812557E1,4.576987E1,-2.9651326E-1,-1.660459E1,-3.8879898E1,-7.198832E1,-5.491031E1,-3.962149E0,-5.1760643E1,-8.4101166E1,-4.926244E1,-9.404455E1,-8.120103E1,-1.0893943E2,-2.8102402E1,-6.0556705E1,-8.487676E0,8.548737E0,1.3539076E1,3.0097971E1,5.1880394E1,2.8405094E1,-1.01721945E1,3.051049E0,-1.2791208E1,-2.1948841E1,-3.319187E1,-4.7875454E1,-6.91523E1,-1.04524956E2,-8.049988E1,-4.368815E1,4.3361063E0,-2.3330376E1,-4.5700294E1,-5.964995E1,-7.573911E1,-9.864925E1,-8.190132E1,-3.464023E1,-8.58581E1,-1.1434295E2,-1.1226163E2,-7.586346E1,-1.0310129E2,-1.2648663E2,-1.1693606E0,-1.8135227E0,-4.1118736E0,-2.6020236E0,-1.1352735E0,-3.221224E-1,-4.8452196E-1,5.4663914E-1,-1.8594432E-1,8.2437843E-1,5.740004E-1,1.6666354E0,2.7021017E0,1.7458712E0,9.3608126E-2,1.6038468E0,-9.658573E-1,-3.4191066E-1,3.1047636E-1,-7.4828416E-2,-1.0447055E0,-5.026297E-1,-1.4444659E0,-9.8875046E-1,-1.5249965E0,-1.9079602E0,-2.6071632E0,-2.199541E0,-3.1826315E0,-3.8397748E0,-5.356689E0,-1.74129E-1,-4.9837775E0,-3.5838509E0,-2.6613905E0,-1.8759781E0,-7.3311585E-1,7.405065E-1,-8.7788147E-1,-1.6068872E0,-2.200266E0,-2.4978766E0,-2.7637177E0,-3.1014724E0,-3.583739E0,-4.0327916E0,-5.4436975E0,-4.593956E0,-5.112436E0,-3.481435E0,-1.2505453E0,-2.844966E0,-3.9718664E0,-4.7197065E0,-5.37804E0,-6.295271E0,-5.311774E0,-6.7034745E0,-3.345186E0,-5.2839403E0,-4.994936E0,-6.6543794E0,-5.6417165E0,-6.663733E0],"categories":[],"categories_nodes":[],"categories_segments":[],"categories_sizes":[],"default_left":[0,0,0,0,0,0,0,0,0,0,0,0,0,0,0,0,0,0,0,0,0,0,0,0,0,0,0,0,0,0,0,0,0,0,0,0,0,0,0,0,0,0,0,0,0,0,0,0,0,0,0,0,0,0,0,0,0,0,0,0,0,0,0,0,0,0,0,0,0,0,0,0,0,0,0,0,0,0,0,0,0,0,0,0,0,0,0,0,0,0,0,0,0,0,0,0,0,0,0,0,0,0,0,0,0,0,0,0,0,0,0,0,0,0,0,0,0,0,0,0,0,0,0,0,0,0,0],"id":12,"left_children":[1,3,5,7,9,11,13,15,17,19,21,23,25,27,29,31,33,35,37,39,41,43,45,47,49,51,53,55,57,59,61,63,65,67,69,71,73,75,77,79,81,83,85,87,89,91,93,95,97,99,101,103,105,107,109,111,113,115,117,119,121,123,125,-1,-1,-1,-1,-1,-1,-1,-1,-1,-1,-1,-1,-1,-1,-1,-1,-1,-1,-1,-1,-1,-1,-1,-1,-1,-1,-1,-1,-1,-1,-1,-1,-1,-1,-1,-1,-1,-1,-1,-1,-1,-1,-1,-1,-1,-1,-1,-1,-1,-1,-1,-1,-1,-1,-1,-1,-1,-1,-1,-1,-1,-1,-1,-1],"loss_changes":[1.597951E10,2.7510687E9,2.7916E9,3.5699261E9,4.135735E8,1.0944462E9,5.9370394E8,5.5205645E8,6.203781E8,5.7546504E7,7.101318E7,1.5095036E9,1.4032307E8,4.2410138E8,1.2966144E8,1.0708614E8,9.371343E7,9.174112E7,5.962281E8,1.7844402E7,7.359984E6,1.5596224E7,7.584096E6,2.1958989E8,3.9024832E8,1.8566656E7,2.4928512E7,6.328E8,4.180019E7,8.369408E7,2.590208E7,1.1892848E7,2.798176E7,1.6168772E7,3.3482944E7,3.4075176E7,4.027053E7,1.52405E8,1.4249587E8,4.166083E6,5.790258E6,4.676888E6,2.268432E6,2.496096E6,1.955424E6,3.17616E6,1.737816E6,3.9432064E7,3.1278784E7,3.3824528E8,3.702707E7,1.582816E6,1.753344E6,2.595328E6,5.16864E6,1.0243379E8,1.9626931E8,9.81952E6,5.656768E6,9.7152E6,1.1508736E8,1.8216064E7,5.837184E6,0E0,0E0,0E0,0E0,0E0,0E0,0E0,0E0,0E0,0E0,0E0,0E0,0E0,0E0,0E0,0E0,0E0,0E0,0E0,0E0,0E0,0E0,0E0,0E0,0E0,0E0,0E0,0E0,0E0,0E0,0E0,0E0,0E0,0E0,0E0,0E0,0E0,0E0,0E0,0E0,0E0,0E0,0E0,0E0,0E0,0E0,0E0,0E0,0E0,0E0,0E0,0E0,0E0,0E0,0E0,0E0,0E0,0E0,0E0,0E0,0E0,0E0,0E0,0E0],"parents":[2147483647,0,0,1,1,2,2,3,3,4,4,5,5,6,6,7,7,8,8,9,9,10,10,11,11,12,12,13,13,14,14,15,15,16,16,17,17,18,18,19,19,20,20,21,21,22,22,23,23,24,24,25,25,26,26,27,27,28,28,29,29,30,30,31,31,32,32,33,33,34,34,35,35,36,36,37,37,38,38,39,39,40,40,41,41,42,42,43,43,44,44,45,45,46,46,47,47,48,48,49,49,50,50,51,51,52,52,53,53,54,54,55,55,56,56,57,57,58,58,59,59,60,60,61,61,62,62],"right_children":[2,4,6,8,10,12,14,16,18,20,22,24,26,28,30,32,34,36,38,40,42,44,46,48,50,52,54,56,58,60,62,64,66,68,70,72,74,76,78,80,82,84,86,88,90,92,94,96,98,100,102,104,106,108,110,112,114,116,118,120,122,124,126,-1,-1,-1,-1,-1,-1,-1,-1,-1,-1,-1,-1,-1,-1,-1,-1,-1,-1,-1,-1,-1,-1,-1,-1,-1,-1,-1,-1,-1,-1,-1,-1,-1,-1,-1,-1,-1,-1,-1,-1,-1,-1,-1,-1,-1,-1,-1,-1,-1,-1,-1,-1,-1,-1,-1,-1,-1,-1,-1,-1,-1,-1,-1,-1],"split_conditions":[8.672667E1,4.9E1,1.2925145E2,-4.41E1,6.628571E1,7.4375E1,1.7618706E2,-6.375E1,-3.48E1,5.7166668E1,8.8916664E1,-6.922222E1,9.2666664E1,9.7129036E1,2.2267229E2,7.7E1,-5.31E1,-4.153846E1,3.025E1,5.8043087E1,6.18E1,7.542105E1,1.46E2,-8.96E1,5.53E1,8.2666664E1,1.09333336E2,-8.32E1,1.25E2,-1.2236842E2,2.8537958E2,6.9E1,-9.5666664E1,5.060336E1,4.508141E1,4.4625423E1,4.044586E1,3.1E1,3.4780743E1,4.14139E1,5.35E1,6.0683277E1,6.105321E1,7.142857E1,-7.9166664E1,1.025E2,-1.1275E2,-1.07333336E2,-7.928571E1,-5.425E1,6.628571E1,8E1,8.56E1,9.9666664E1,-1.2428571E2,-1.07333336E2,7.4375E1,1.09333336E2,1.46E2,1.63E2,1.1364706E2,1.63E2,-7.928571E1,-1.1693606E0,-1.8135227E0,-4.1118736E0,-2.6020236E0,-1.1352735E0,-3.221224E-1,-4.8452196E-1,5.4663914E-1,-1.8594432E-1,8.2437843E-1,5.740004E-1,1.6666354E0,2.7021017E0,1.7458712E0,9.3608126E-2,1.6038468E0,-9.658573E-1,-3.4191066E-1,3.1047636E-1,-7.4828416E-2,-1.0447055E0,-5.026297E-1,-1.4444659E0,-9.8875046E-1,-1.5249965E0,-1.9079602E0,-2.6071632E0,-2.199541E0,-3.1826315E0,-3.8397748E0,-5.356689E0,-1.74129E-1,-4.9837775E0,-3.5838509E0,-2.6613905E0,-1.8759781E0,-7.3311585E-1,7.405065E-1,-8.7788147E-1,-1.6068872E0,-2.200266E0,-2.4978766E0,-2.7637177E0,-3.1014724E0,-3.583739E0,-4.0327916E0,-5.4436975E0,-4.593956E0,-5.112436E0,-3.481435E0,-1.2505453E0,-2.844966E0,-3.9718664E0,-4.7197065E0,-5.37804E0,-6.295271E0,-5.311774E0,-6.7034745E0,-3.345186E0,-5.2839403E0,-4.994936E0,-6.6543794E0,-5.6417165E0,-6.663733E0],"split_indices":[3,1,3,1,1,1,3,1,2,1,1,1,1,1,3,2,1,2,2,3,1,1,1,1,1,1,1,1,1,1,3,2,1,3,3,3,3,1,3,3,1,3,3,1,2,1,2,1,1,1,1,1,1,1,2,1,1,1,1,2,1,2,1,0,0,0,0,0,0,0,0,0,0,0,0,0,0,0,0,0,0,0,0,0,0,0,0,0,0,0,0,0,0,0,0,0,0,0,0,0,0,0,0,0,0,0,0,0,0,0,0,0,0,0,0,0,0,0,0,0,0,0,0,0,0,0,0],"split_type":[0,0,0,0,0,0,0,0,0,0,0,0,0,0,0,0,0,0,0,0,0,0,0,0,0,0,0,0,0,0,0,0,0,0,0,0,0,0,0,0,0,0,0,0,0,0,0,0,0,0,0,0,0,0,0,0,0,0,0,0,0,0,0,0,0,0,0,0,0,0,0,0,0,0,0,0,0,0,0,0,0,0,0,0,0,0,0,0,0,0,0,0,0,0,0,0,0,0,0,0,0,0,0,0,0,0,0,0,0,0,0,0,0,0,0,0,0,0,0,0,0,0,0,0,0,0,0],"sum_hessian":[1.6153388E7,1.0031883E7,6.121505E6,8.743854E6,1.288029E6,3.786125E6,2.33538E6,1.786446E6,6.957408E6,9.00921E5,3.87108E5,3.192766E6,5.93359E5,1.577533E6,7.57847E5,4.60386E5,1.32606E6,1.338331E6,5.619077E6,5.39765E5,3.61156E5,3.0484E5,8.2268E4,7.6468E5,2.428086E6,3.88383E5,2.04976E5,1.325927E6,2.51606E5,5.04876E5,2.52971E5,3.08815E5,1.51571E5,5.5604E5,7.7002E5,6.69649E5,6.68682E5,4.156453E6,1.462624E6,1.36645E5,4.0312E5,2.10767E5,1.50389E5,1.86756E5,1.18084E5,7.5675E4,6.593E3,2.33113E5,5.31567E5,1.699809E6,7.28277E5,2.19656E5,1.68727E5,1.30165E5,7.4811E4,4.1023E5,9.15697E5,1.79299E5,7.2307E4,7.4034E4,4.30842E5,1.89822E5,6.3149E4,1.95793E5,1.13022E5,4.2744E4,1.08827E5,6.9926E4,4.86114E5,8.9014E4,6.81006E5,9.7714E4,5.71935E5,9.8982E4,5.697E5,3.686651E6,4.69802E5,1.77804E5,1.28482E6,3.6506E4,1.00139E5,2.37894E5,1.65226E5,5.3239E4,1.57528E5,3.5866E4,1.14523E5,